-1.5530477,0.41900527,1.733403,-11.586652,-2.587669,-3.209942,0.78458345,0.2789535,24.446342,-0.31050324,0.07707409,-0.6677738,-0.55700046,1.152863,-0.39652073,0.62816447,10.03434,1.090597,0.01229995,-1.8041321,-0.7018329,1.9396883,-0.9911702,-0.9332791,-0.07619063,-1.7866421,-2.056345,-1.1991763,1.8376576,0.6381012,-0.9596239,-2.817068,-3.474399,-0.25196007,2.4974995,-0.84736633,-0.7048083,-0.44715238,0.21587485,-1.3450726,-2.931662,-0.96910065,-0.17558959,-0.065512404,0.35027558,-0.9021806,6.3183746,-0.7249038,-0.39473403,0.016999569,-0.6438881,-0.6422406,0.9465476,-34.44018,3.0342944,0.5400605,0.45186725,-0.54495955,-1.600374,-2.6462574,-0.66348565,-32.67529,1.0091056,-1.0235767,6.5029035,-0.41345283,-1.2351903,-0.13434993,-0.5970617,-0.33360392,-0.75941384,-1.5925263,-1.2178385,1.785067,0.7425372,0.7123998,0.6948976,3.9724264,0.44115296,2.5810907,-1.0275385,2.078428,-0.8450641,-1.7171177,-2.9383185,2.827922,-3.5098622,-2.137957,-0.87200576,-0.095102355,0.43198436,-3.2772114,0.26200032,-0.697709,-2.4546225,0.2590719,-0.69519585,1.1684256,-0.6729468,0.7013782,-0.50698334,-8.20576,2.7961452,-0.4193708,-0.06705313,0.37590724,-5.5197577,-0.71852875,-1.0041691,-4.4935775,-1.8785484,-3.1011257,6.018311,20.61888,2.249613,-0.84768224,-0.58157396,-1.4783615,-4.451983,-0.07487343,1.975881,7.0246253,0.6849057,1.4902134,-0.13647492,-0.056843292,0.3511326,1.2721403,-2.7891011,-2.289518,0.123328105,4.3358803,6.0477705,-2.1629953,-0.8164915,0.8198119,-0.6930509,-0.026483072,-1.7686435,0.9758328,0.44902605,-0.07145631,-0.28781807,-0.013053181,-0.40503055,-0.07359177,-2.0378957,0.758841,-0.25534394,1.715506,-1.3754092,4.2724195,3.8289528,-3.8820062,-0.05975605,-0.4085023,-19.773375,-0.2136236,-1.6234659,6.835036,0.4353258,3.9115205,-9.014119,1.545105,-3.6647718,1.0990394,-0.58225715,-0.80628216,-3.0189564,4.0271072,0.11800465,0.51112425,-0.37756264,0.32901442,-0.21874087,-0.1209761,6.104754,15.280684,-1.5602596,1.2278545,0.33195394,0.21270564,-0.91670215,-0.4663766,4.6494226,0.034240946,0.60139114,-0.51929766,-2.144478,0.16801673,-6.665181,-0.81367105,6.2103357,-16.018665,30.310139,4.5460734,32.705967,0.5026045,-0.30782354,-0.23993675,-1.4873483,-0.71838546,12.2913475,-0.088096514,5.240085,-1.1412597,-2.1021168,-17.486193,-3.2320147,1.3451649,-1.3151222,9.983393,-2.5056949,-4.9610157,-0.2555659,0.7652684,6.3084984,0.10748598,0.13557447,-0.7525587,-1.4458684,0.39126456,-9.6460495,-2.2522883,-27.29181,-1.2921851,-0.3827157,-0.49447015,-27.863817,-0.8494515,-1.1081539,-1.8403449,0.17063315,1.2299316,0.32219926,2.6754394,1.242434,-0.17237487,3.5386643,-1.568835,-1.7178231,-0.48128864,-1.4986475,0.22402014,0.6076586,-3.5972562,-3.50768,-0.06901229,-12.527219,-3.00965,-1.2438788,-3.998973,0.020716205,-2.3352308,-0.6451172,0.40076518,0.13565415,-0.69537127,0.9529175,0.8608619,-1.532386,5.0395045,0.9140081,3.8990223,-0.6091598,-1.8025715,0.13990664,-3.7257488,1.5372995,-1.1636258,2.591434,-0.39405614,0.27178174,0.31403577,-0.87559056,0.5505082,-0.9654344,1.5278989,8.4738,-5.04793,2.6954432,-3.9030085,1.3365132,-0.8074152,1.8867482,-0.74386007,0.5073941,2.172495,-1.9735605,-2.6951544,-0.8983792,4.586549,-0.60486376,-1.1686052,0.019825254,-0.026497465,0.22436321,-1.1909686,-1.2192045,0.7688261,-0.008106558,0.105417155,2.1047194,-2.7947698,-0.6072099,-0.033839166,0.37402418,-0.4330734,-1.8650802,-1.6280868,6.4915648,1.5145847,-1.2927667,-1.5859386,0.48952162,-18.797611,2.6077392,-0.8310979,1.8487909,-0.3230927,2.2239635,0.9473393,3.5437524,-1.0262464,-1.8937867,-4.005307,-0.5741127,-0.44824415,-0.95909,-2.0580084,0.9918582,-2.76201,-0.8559319,-0.9750103,-2.6454325,7.083564,1.2749147,-0.50147426,2.3654146,8.286777,0.19564296,0.039724655,-0.2915619,-7.222171,-0.55002373,0.7716484,-0.5770737,-1.3000329,1.0983963,29.35038,0.954136,0.22517008,-0.9370064,1.636817,3.6936076,-0.60794836,-15.325427,-1.245584,-0.020560192,4.9430156,-0.31519064,-4.6822305,10.36426,-2.4741156,-2.427382,-1.2600392,1.2014635,-14.114743,-0.25714156,-0.56362385,-10.206183,-0.18921788,-0.9868868,0.050553992,-0.29117495,0.032871,-7.632009,4.5981016,1.6221216,-0.47838172,2.4526033,-1.251272,-21.258642,0.73423314,2.1496558,0.25871262,1.6054277,-1.0601673,-4.0810223,-3.9937315,-26.61547,8.202879,-1.0291672,-1.2720991,-1.2146279,0.43745327,11.355244,-5.8810143,-1.3875943,-0.21371771,-2.0323977,-0.6194779,-0.3764346,-1.0882939,0.6235265,-0.08809498,-27.26747,4.0513935,0.5685513,-0.7543523,-1.7603462,2.1865454,1.542501,-2.017753,-0.38807535,0.23288836,0.82045853,-2.286051,0.34523112,0.10786377,-2.9987402,-2.1911614,-0.61330926,-2.450056,-3.027593,0.75702286,4.1349897,1.475845,-3.1378083,-1.6890386,-0.66539305,-0.8694987,4.6446013,-0.7919343,0.6029331,-1.2179496,-1.7257202,8.536246,1.1537032,0.15623783,-0.97764075,1.0933397,-1.4810518,7.5310974,-0.86223036,1.153717,-2.0839436,1.7831053,-1.0368592,-22.193644,-4.390965,-1.2761257,0.4240198,-1.5630243,-1.0663965,-19.12555,-0.8563852,-8.265768,-1.0314109,-0.45533213,-0.5662945,-0.28565052,1.4757231,-21.273651,0.8526615,0.1467762,2.2813,-1.2730378,2.0695186,2.6030009,0.43855786,-2.121663,11.5089655,17.030787,0.77912503,-1.839187,-22.394163,-0.88739073,-1.1210992,-0.9674653,-1.9287101,-1.2737147,1.0755979,-7.4701324,3.511541,-5.51516,45.474094,-11.109506,3.1997113,0.14255044,-6.1550956,0.90538394,-2.602862,-2.2306337,2.7241611,-3.3558903,6.787438,-0.23829545,8.763911,1.3708798,0.50668085,-0.7504418,2.96015,-1.8487725,1.5867251,-0.16107085,4.0082345,-0.52825487,0.39128673,-2.6665363,-0.59087366,-0.3963786,3.2508533,-0.34975722,17.975681,-0.8812527,-1.1541526,1.8950765,-0.37526435,-3.9951103,-2.2262878,-7.893643,0.18782046,28.329254,0.5182959,-9.312525,-0.68356806,-4.0614934,-1.2352458,35.761024,2.0108173,-6.7352433,0.07316549,0.25201786,-0.5583165,68.68287,0.078147314,-2.132439,0.27411115,-1.3034312,-2.2020116,-0.13179827,-0.6603388,10.6182165,-0.5855625,-0.58983034,13.80047,0.6716203,-2.412068,-1.0629113,0.29383045,-0.56141585,-0.71372896,-17.547203,-0.48200047,-0.3763904,0.8335285,-0.903352,-1.8380582,2.5064692,0.5123808,-1.3956815,1.7345165,0.070021,-0.55483705,-2.3390195,6.6085763,-0.08074738,1.4305724,0.014988586,0.9077972,2.2131193,0.11733935,-8.990601,-1.274517,0.63988584,0.8677406,-0.9614294,-19.25596,0.6177291,1.5101285,-1.4158932,8.374749,0.05239822,6.2500777,14.301458,7.4334893,0.22335608,-0.8632777,-0.42719886,-0.107011445,0.018596979,3.1206684,3.6321883,3.5459545,-2.4227755,0.5931216,-1.512885,0.5304819,1.6304071,0.12030183,-1.1622405,-1.9742199,0.39205313,-1.6176693,-3.129361,-0.060258012,1.045044,-2.1134324,0.38092896,-1.9111669,-8.255365,10.139637,2.8653488,-0.033513706,-6.654073,-2.6353197,-16.84204,-1.8070754,3.213831,-8.6223955,1.4760259,0.42532593,1.9641491,-0.49111715,0.22828054,-1.1416876,0.52025884,-0.6037291,-3.230171,-1.775401,-0.5643701,2.2004526,0.039079625,-0.30669844,-1.9289466,-0.8936573,-0.18873248,-1.8521045,0.48715305,14.130308,-0.40379775,-0.7637774,3.2894406,12.926217,-0.38828197,2.5623915,0.6842214,0.26169425,0.95606,-7.5465407,0.28914326,-2.1481483,-0.23566821,-1.9312284,0.5552971,-0.47454154,0.33747554,5.2348332,1.3217187,-0.5775245,1.2342575,-0.025828302,-0.7674749,-2.992957,-0.5242603,-3.796445,-9.665833,-1.8230797,-1.8381728,-0.8251674,-2.1923034,-1.1246965,-9.312143,-1.1708882,-0.78275836,3.5050786,-0.21209446,0.016644983,-0.05230723,-28.68909,0.45517147,0.1284516,-0.026835931,-2.9499547,-1.5351329,0.18897869,2.0378225,0.5340442,6.374561,2.417136,1.0536714,0.37570193,3.3730967,-0.9832227,0.5553635,0.2832436,-1.3551055,-0.7041594,-0.7696259,-0.47398198,0.3061553,-0.57645184,-5.3733068,0.59950924,-2.6191595,14.193448,-1.0454336,-0.27433053,-1.147235,-1.479327,-2.3551612,-22.24201,-37.44189,4.587546E-4,0.32214704,-5.8267274,-1.3478336,-2.1972153,-1.33624,0.08630642,-0.16754591,-1.2006356,9.075627,3.2613702,-2.2485948,-12.545071,0.836845,0.15877071,1.1591,-0.41343197,-1.9871346,-4.095438,0.36096182,-2.2282665,-4.4488482,-2.5611722,-1.4522705,-0.18023892,-0.2460444,-2.5500274,-1.3909832,-0.309786,-1.4302222,0.31561595,-1.0347545,-0.8874557,-0.5675916,-9.567861,-1.7656457,1.2077924,12.03572,-0.07963313,6.3537626,0.08150588,1.3406955,-0.44835693,-0.10015306,-0.900689,-0.35592586,-2.3723862,-0.13513741,1.5580726,-1.8918018,-1.1071786,1.1378856,-0.87541455,35.603737,3.7641153,-0.53324413,-3.419881,-9.439351,-3.2400117,1.4165738,0.61764103,-1.4773841,0.6577935,0.25120783,2.625645,-0.080829345,-0.5882431,-3.0927906,1.415454,-0.052325614,-0.46026838,2.422777,0.19752099,-9.70623,0.094821446,-0.57971,0.779412,-0.403513,4.986461,-1.4219832,1.3555108,-1.164904,1.0851556,-0.67590934,-4.6196485,0.057259742,-0.7403056,0.6997305,9.531807,-0.5430258,-0.91074693,2.0269587,7.6435227,-0.6564017,-1.520083,-3.223273,1.6295822,1.050697,2.9855397,-2.2510805,1.4166555,-0.26722184,-1.3789312,0.7731359,-0.8268799,136.03853,-0.72198826,-5.782982,-0.40336758,2.008434,5.822259,-0.7310441,-1.2347326,0.784584,-1.1190444,-1.3923726,-10.049756,-0.6003676,-13.245091,-0.49714255,0.37158507,-5.105821,-0.73898625,-10.626615,-16.415794,-2.1950922,-0.0613865,-0.72483367,-2.017665,1.7819451,6.8207765,-1.1315458,22.345343,-2.6117163,3.1694896,-2.813077,-1.8617847,-26.592966,-8.658989,1.113795,-0.8505411,-3.2074068,-0.9721918,0.64367896,-1.5432535,-1.3866049,-0.42191792,0.78260183,-2.0207696,-0.47249708,-3.078088,0.5065204,-0.65402377,-1.9838892,-3.8933778,-7.3703346,-2.5331678,-0.37712717,-1.7120279,-0.7038842,-0.7928375,-0.1000692,6.0472555,-0.26294595,-2.1000853,3.007974,0.21059997,0.65615314,0.46713048,5.62849,0.20953615,-4.9997964,0.05125727,2.1999395,-1.3591669,6.8252616,-0.54905206,-1.5865309,-0.8230215,0.6048937,-3.5099452,-0.8666044,4.888983,1.1450292,-1.9394007,-1.8354418,2.2861948,0.8120115,-1.0411204,3.481236,-0.94520026,-0.26546535,-0.911951,-0.4758109,0.896452,-0.024607804,-3.967043,0.76095396,-0.45964816,5.595963,-6.1086097,0.29291448,0.013577882,6.9583774,-1.5403833,0.9609239,-0.25650123,-0.2522974,0.5789027,-2.596976,-0.048245672,1.0514979,1.0335158,0.06514097,-1.6640152,2.6164327,-1.5664253,1.3733633,-1.070597,-1.1968731,6.23178,-1.7710593,0.10996012,0.5622966,5.3042207,-0.21158133,4.5398335,1.0178758,-0.08767949,-1.5193144,0.7381812,6.5178885,-1.2922072,-3.4459383,-0.29832572,-2.272193,-0.4102457,5.296279,1.4788897,-17.99746,0.17095399,-12.108354,0.5966255,0.48712292,-2.2842503,1.5410155,-3.5071056,-0.09438872,-1.1199831,0.09044454,-18.070057,0.9441131,-0.5151548,-41.54826,1.3110267,2.9262812,1.7111554,0.21511708,-0.62287515,-11.954079,0.22020999,-1.0856627,-2.3695033,0.008753289,1.7533531,-0.20622799,-3.0422866,4.027635,-1.7655894,-5.1781535E-7,-0.48794872,0.8489556,0.061624274,-1.8164045,-2.9551036,-0.36649716,-1.2072289,-1.665739,0.36483005,8.460288,0.85587615,-0.08747473,0.9600737,3.6621578,-0.07138237,-0.50469387,2.782177,-1.3370985,-0.4357205,-9.992824,-0.588026,-1.2387387,5.5332913,-0.6601767,-0.67605287,0.8440569,-1.6432425,37.10395,-3.2261362,-0.34092733,24.463917,0.9968619,-1.418004,0.48640662,-0.6439333,3.692254,-0.95040023,-16.027773,-3.7191849,-16.783642,-1.690182,0.034911163,-0.43037474,-0.4211896,1.3318071,1.8239671,-3.0907202,0.72517437,-3.683296,-0.74730295,1.2513614,0.44251242,1.6191119,-1.1101452,0.17079456,0.38128623,-7.06377,1.1412928,0.11481762,1.0499518,-1.1690278,-0.969696,0.2764456,3.331411,-0.4037353,-1.466859,-1.1528099,-1.4654276,2.1734233,-0.16881254,-1.5297596,1.1963574,-7.3245506,-0.666073,-3.0590024,4.837963,-2.064986,-0.69257295,0.20067455,2.02687,-0.277483,4.4000626,-0.5500058,0.5222814,-0.5372202,12.471413,-0.5079299,-1.0384129,0.12285816,0.42420146,0.06922051,-0.1799118,-2.7336507,-0.8562062,-2.628954,-3.3344705,-0.067489244,-0.003284926,0.42223263,0.9417227,2.4252777,0.92089623,3.0711768,18.968065,0.3663916,1.5491968,0.09930021,-0.69879663,0.6440601,0.35394505,-0.7608154,16.14672,0.144831,-3.2760425,-0.2624223,-4.1259127,-0.6014711,-0.13188651,-5.0324087,0.18010294,-0.22405359,3.2005937,-3.1915355,2.0451913,-0.1285221,-18.929049,2.2435646,-0.7626606,-3.0951638,-0.29810536,-1.1414084,3.4484954,27.345268,2.9178615,-0.7609072,-1.5615922,3.0961719,-0.41818517,-0.2767081,0.20604606,-2.7921288,0.43679732,-1.8925929,-3.5824711,2.3521338,-0.62944704,0.19405249,-0.19290628,-0.45620885,-15.530655,0.27226877,-0.48686814,7.216523,0.0021625073,1.0207534,2.570018,-0.049808577,-1.0647662,-0.44372973,1.498103,7.8242407,0.7726131,-0.35661635,12.630482,-0.2200087,0.21908996,-0.81538934,0.94409794,-0.8267329,3.1909096,-0.25867236,-0.46477288,0.23090132,2.5076756,-1.7122097,-26.217512,-0.23915109,-1.0616345,-1.9512457,0.16687125,-0.69857204,6.224577,7.279603,-1.2714028,-0.38261032,14.793696,0.597359,0.7376453,-1.5010635,0.7484423,0.049601015,-1.8620964,1.292548,-0.081830785,-0.11179334,1.1449546,31.037767,-0.21489528,-0.58624697,-0.052622754,-41.902172,0.22968714,-16.38584,-0.6520307,-0.31249067,-0.7099678,0.086182445,0.91042477,0.23209211,-0.49021512,0.028517095,-0.3379591,-0.0012385575,0.30580196,-0.65963167,0.8323019,5.291283,-0.12108246,1.1358212,-139.26741,-6.626911,-5.9946218,-5.940523,-0.914311,0.6928725,1.4457164,-0.42376488,-0.32010466,-0.30057606,-0.3076374,-3.231772,0.38462505,2.5546098,0.18209268,0.07125915,7.6679554,0.65671784,-0.28768572,1.8594993,-0.27264065,0.1413345,-0.34512815,0.6784478,-2.2925239,-10.046328,-2.0840836,0.418136,-0.9840363,-0.4548061,0.31473526,-5.274541,-1.016221,-2.582559,0.26619986,-0.65381753,-0.27151966,-0.9918746,-0.38875738,-16.212465,-1.4813617,-0.0056257397,-0.41121912,-0.33109945,-0.7702997,3.110247,-2.6623032,1.0368972,-0.026087591,-2.150741,0.20730911,-4.5273128,0.3234098,0.3686699,1.2340887,-1.9300416,0.93649656,-1.0958123,-0.79075134,0.63353246,0.22032054,-2.8971221,0.83598256,2.9097464,-3.7786357,4.314445,-1.663624,0.61812145,-3.447579,-0.5647726,1.8908181,0.18755667,-7.577848,-23.812859,2.4476657,-0.99508286,0.23310736,5.3169246,0.50393873,-0.5814038,-1.6402568,-1.29924,-0.1818489,-2.1393113,-0.5057702,-1.072768,-0.850466,0.2885803,0.52411604,-2.1089272,0.061969355,-3.0606399,-3.4141564,-2.8373976,5.0408874,-1.1892133,-5.2003374,0.7130278,-28.435143,-2.8401387,-1.9261833,12.305462,-0.18776087,0.99617296,-1.1530918,-1.2239783,2.6415112,-0.2842885,-4.175503,0.45338038,0.07391296,-14.904099,0.34969217,8.722541,0.059720118,1.0024016,1.0185826,-2.6576526,0.5773544,0.50592095,-0.20286025,-3.1137245,0.13138752,-1.6487699,2.8873057,-0.39639717,0.107471704,-1.0215122,-1.8384345,-0.17804055,-2.7196653,-0.35205165,-1.4500601,0.12865788,-0.568365,0.012105985,-0.4169835,-1.8334115,3.0029154,19.501373,-1.6420141,-0.51186895,0.5351233,0.32356167,1.856631,-1.5892806,-8.054344,-9.823559,-0.6287744,0.9972016,0.12499043,-0.44480184,-4.586616,3.1716588,1.3373138,-0.5844451,-0.101380706,0.7338454,0.74188894,-0.42897153,-0.01861367,-4.580308,0.22370873,-1.417226,-0.086815715,-0.15303172,0.7328335,0.77888715,4.4197974,4.257397,-1.1003618,-1.8535725,-6.4942503,-2.4605758,9.855283,0.4973627,0.20521042,4.613762,-4.1729903,-1.7234824,1.1117944,-0.41038346,1.845526,0.27440053,-0.10993655,-0.40910035,-0.872965,-0.34981638,0.21816188,0.76476663,-0.43912226,5.5616536,-1.086763,-0.5508704,-2.9360507,2.3553066,-0.9048027,-2.71411,-0.90843993,-1.6733578,-1.526052,-0.926232,-29.022625,1.792919,2.6741474,1.1414484,0.018603928,-0.70256716,-0.093693905,0.15219422,-1.45067,7.354833,-9.263013,-0.7405749,-0.51211625,32.617626,-1.6349251,0.08752235,-1.8926748,7.5935464,-0.09684345,-4.5494742,-0.84012836,-1.7207599,0.43816283,-6.6186237,0.11482863,5.223345,-4.022176,-0.12912196,-18.213717,-0.5575755,-3.0442603,-0.9791168,-0.16584703,1.5037912,-0.44727555,-0.26881728,-1.7259958,55.679733,0.20149384,-0.5753221,-1.1847348,-0.8315332,14.806863,-0.19202544,0.045097925,-0.4649472,0.6337338,-7.8880973,-0.7502686,0.8157316,-1.2636746,2.0922797,2.6583073,1.1314048,1.3139368,-1.1433299,-4.822103,0.16792654,4.5515597E-4,-7.1463675,-0.2634094,5.263252,-7.030689,-2.2619414,-0.060147293,0.3199296,-2.773094,3.4843175,-2.3776405,-1.094124,-12.5670805,-2.9788265,2.5120807,0.12748253,-0.4053813,-0.6531114,-2.524645,1.2078121,-0.046999943,-10.275133,-0.647476,1.7829517,-5.6977286,0.9630765,-0.7934974,0.7224541,14.123983,-1.0748612,-0.96632063,10.656997,5.0259657,0.09929044,-1.4175065,-1.4474528,-0.51750296,-0.868192,0.21466234,-3.2435467,0.51929265,1.3759617,-0.11554065,1.5281135,0.46358967,-10.653033,-0.6797247,0.6708701,-16.412155,-0.4798153,1.8909101,-4.528687,0.6489957,0.43710846,-1.4476362,-0.4655066,-1.2240634,-2.8322659,-1.189791,-0.12091284,0.48910487,-0.5584429,1.2301228,-0.057035252,-0.67715174,9.562288,-0.24528562,-2.4514844,-1.9750252,-6.6623116,0.24169502,-1.639386,-0.79224867,-1.0848573,-72.41849,-80.64105,-0.30632204,-2.719314,-0.05265126,-3.9465547,-2.9265492,0.26407,-2.4562836,-2.5297418,-0.4054557,7.6094766,0.48903203,-94.44717,-1.1360366,128.49243,-5.0781975,-0.40809655,-3.8393466,-1.0254523,-1.4353493,1.6953835,-0.08813587,0.26177695,-2.0774877,-4.5671825,-0.2854162,-0.10705858,-0.38022178,-0.66892016,-136.4972,1.7172704,-0.99467677,-0.3307501,-0.47204268,0.1833828,0.986745,-2.541955,-0.21348871,-3.0295305,-0.50948447,3.8794503,-2.1149542,0.1973835,-0.2783749,-1.6312299,-0.49650055,-1.1213118,-0.7604097,-2.993673,-1.3204744,7.6350656,7.4699264,-1.0321605,-1.8573442,4.4689684,0.30880475,-1.4672704,-2.756932,2.447517,0.6125295,-3.4829803,-0.4856809,-0.2096604,0.5831338,-2.324134,-1.8686666,0.076023966,-15.205776,2.4822626,-0.6153465,-2.1528852,-6.4454513,0.9397292,-0.9955358,3.778081,1.0527074,33.799522,-0.24579978,-1.0707121,-0.64267415,4.312509,1.1802036,3.467735,-1.3817383,1.9278746,-0.662794,-1.7412193,-0.90285337,0.28765967,4.044503,-0.51595914,0.05820734,1.2584797,-1.516308,-0.68476915,-0.37360743,-2.78512,-0.14120728,0.008606043,-1.0725172,0.010222677,2.6782734,-2.9629886,-2.261602,-18.271065,-12.747089,0.5693403,0.9976433,0.6332843,-4.690321,-2.1916826,-20.651169,-0.11035286,-1.155501,1.2780895,2.3901255,2.473048,0.68512225,-0.3818445,2.5296612,-1.3852696,1.248255,0.52274495,-3.7586322,-0.36772177,29.80731,-1.0254285,0.04621068,1.3894717,12.046854,1.818274,-1.7198824,-2.3621762,-0.03098679,-4.7127347,-3.5584235,-1.0260967,1.6524398,0.5004394,0.1595459,-1.4517181,-0.051825054,-0.11278816,-1.4947618,0.9507812,1.4053776,-4.0898485,1.9592882,0.9747481,0.6940775,1.6137391,13.843423,-0.45623827,9.086043,-2.8578312,22.973375,-0.5518106,-2.0592499,0.5858,0.05418014,-1.2485834,0.8704661,8.9907055,-1.7372384,0.53501064,1.2866876,8.367916,-10.265537,-1.2481607,0.41930014,-0.007097684,-0.9088135,0.012162549,-0.37371063,14.282328,2.6869454,0.011271636,-0.3187372,1.7867602,-3.1076458,-0.63981944,0.6330689,-1.5400989,0.81263316,0.52244633,-0.7277532,-0.49113292,-0.33084303,-1.2120879,-5.471088,0.58679575,-5.695362,2.0542583,-0.16027145,-2.4307563,-0.63865316,-0.5623607,-3.3322008,0.85917723,-0.4596674,1.3060749,0.08427996,-0.87980294,-0.34330985,0.8031229,0.37192327,-7.140736,-0.76371056,-0.5725786,1.5657699,-0.31322536,0.24500848,9.462439,2.5641167,0.35761285,-1.2276335,0.303685,-1.3183591,0.031822182,0.23848322,1.9304489,-0.30141574,-0.5261007,1.3948636,0.8739597,-0.8979879,0.66974324,-5.8513055,41.563778,-7.1447463,-11.472797,-0.161387,0.82049876,-0.76658744,8.068449,2.8225493,-0.6880542,0.13205141,-0.1271274,-0.0742359,-0.6428743,0.5087885,-2.788763,0.74231416,-1.8117687,-0.7198551,-2.2550154,0.16190323,-0.296517,-0.124392115,-0.0074897707,-2.4563184,3.5395327,0.03539388,-0.7092457,-13.073545,1.827364,-59.77273,-0.91307324,1.9375986,2.7149408,-0.49939072,2.440378,-0.1690723,-0.86242145,9.470602,0.6324343,-0.8425392,0.26654145,0.98463434,-0.6828556,-0.10667535,0.6772621,-1.9679607,0.6105383,3.1334133,-0.043036573,0.14032194,-6.156838,-1.6101426,-0.36118263,-5.506539,2.9593158,2.3387113,1.6024818,1.2003437,-0.76050335,-4.7190423,-3.0155845,10.83748,-17.116331,-0.58891386,0.06620476,-23.70791,-8.693501,-2.3407938,0.20191902,-0.81404996,-2.359004,4.146858,0.3717421,-3.522306,-0.114262216,-0.48979843,-2.8114626,-4.016103,-0.41216505,-0.90438193,-7.5717826,0.62418675,-1.0796479,-0.4924971,74.15362,0.3797333,-2.6829066,-1.0355258,1.0572562,4.630567,10.720206,-1.0531026,2.6247501,-0.50353986,-3.4023328,-0.98141,-0.34932607,1.1954249,-3.5793374,2.333706,-0.0072155,0.41586626,1.5036838,-0.58057594,-0.028699286,-2.772857,-2.115902,-7.6665235,-1.4388376,-0.031767994,0.24263963,-0.92893225,3.7448025,-0.2950283,-8.600593,-15.748728,-2.525715,-1.1882322,-1.0920694,-1.7675564,-0.49832708,2.1791847,-1.7710567,3.0462651,-0.5433493,-0.49661002,2.018202,1.1069174,1.5530236,0.12323225,-0.5618656,-1.9021425,-0.8715148,-1.1548227,0.8679428,2.6647236,-0.1622919,0.030871173,-1.4838952,-1.038198,-14.264084,-1.0727477,-0.6153347,-0.9005193,-0.76681304,-2.4758284,0.34646896,0.03279209,-1.5121882,-0.8840923,0.20085223,-0.33303657,-0.12889192,-12.998517,1.2518365,-0.2305795,-0.35934576,-0.40912884,-1.4701635,-0.7118343,-0.49008182,-4.0222936,-1.4139682,1.061904,-11.436074,3.072601,-0.012812405,1.0558124,0.87346303,0.09286228,-0.07951165,-0.16432013,-5.641099,7.05853,-0.06557872,5.0178814,92.7124,7.014449,-5.9643292,1.2775686,3.9831464,-1.3401015,-4.6207547,-1.3556324,-1.9991128,0.34556472,-1.1479222,-1.219455,-0.27154458,2.5892239,0.38122118,1.0793524,0.4327984,1.435825,0.5354608,-0.42313233,0.7345773,-1.327378,0.8849578,4.8883533,2.8791099,0.8440743,-1.8851407,0.19900559,0.06678622,-0.15757395,-0.26731336,2.90282,-5.105951,1.2960986,0.124790296,-1.5841409,-0.4933722,-1.0299859,-3.4830463,-2.7975125,0.59285223,1.5991815,1.7350103,-0.14753664,-1.9662077,0.4666294,-0.4876173,-0.1962342,-0.32713014,-0.6604472,-1.5102545,-0.75860065,-3.2405539,-2.9416242,0.200853,-1.3390713,7.6841245,-1.8623825,-5.2215075,0.28140467,1.6709576,-14.610885,-2.2000217,-2.7514055,-2.546748,0.89885783,-3.8531373,-1.0713305,0.91430944,-0.44105345,3.3827467,-1.742789,-0.43073606,-0.91543907,-5.998733,-1.8070707,-0.13241197,-3.651402,1.7568872,-0.50610155,-1.2801292,-2.0491242,-0.5598613,-0.1720921,0.18899915,-1.3640054,1.579509,-8.625025,-0.8050128,-1.5449111,-1.5669138,0.40356046,-2.2294657,1.5589957,-0.19530489,-3.4150884,-1.1906117,-0.43396717,-1.2055088,1.5032709,0.75056434,-0.06624625,-4.3893266,-17.67757,-0.08126821,5.8376317,3.2975936,-0.56545305,-1.9910799,-0.75508773,-9.212688,0.06095673,-0.76008034,3.4362197,-0.38013756,0.15647778,0.21966119,11.220275,2.5119476,-0.5620941,0.32756254,-1.7842798,1.9306937,15.321167,-0.8127406,0.48708522,-0.35135785,7.9081826,0.25031558,2.7089138,-0.14968334,-0.42655224,-0.3661467,0.3525005,-0.44598565,-2.1381185,-1.7443128,-3.8916998,-0.96917295,-0.76647806,0.25094834,0.7980471,-5.2235336,5.0280976,-0.12958358,-0.45417482,1.2469078,-1.1911991,-0.9075969,-0.2207364,-0.75081474,-3.7839577,6.5713735,5.369318,2.5144105,-0.20373206,0.21871391,3.435194,-1.3157792,0.9570153,7.5044336,8.108767,-0.24911627,0.11048435,-0.8316279,0.548616,0.424417,-0.61544055,0.39451465,-0.43533313,2.099688,-0.86890787,10.669676,1.1046904,1.0880266,-0.11241777,-0.67635036,-0.69385093,0.12407608,-2.3743582,-4.133913,0.7846848,-0.5502612,-5.568567,-8.804286,-2.6573434,-0.62365586,-1.7498815,10.136479,0.92145693,0.20519188,-1.8754289,-0.118789695,2.0787003,-0.75385827,3.3945043,-2.6838644,-7.635854,9.429701,0.22087844,0.24113162,-8.959733,7.537774,-2.2001064,-0.86785185,1.5782614,-1.3756629,-1.2636677,1.1274203,-3.9463851,-1.2898095,0.093740195,-1.3098338,4.261226,0.61851513,0.2504091,0.40528533,-2.321105,-1.9896568,-0.16585143,0.18912229,-1.8389317,-3.4162407,-0.16050416,-0.0648763,0.09886776,-0.19698757,0.13905925,-1.3838583,2.3217978,-0.09499538,-1.8813095,-3.7733834,81.531494,-0.9485007,-0.30408764,-1.7044928,-5.9610434,7.4121265,0.13201146,0.94630545,0.7007186,-0.04246202,-0.9089277,-8.188158,-0.011908902,-0.14701517,-5.6489625,9.875195,-1.5563401,0.670916,-0.4424349,-2.4248362,-0.6089451,11.728615,-0.048180595,-0.57150024,1.4676303,0.016698953,1.973122,-0.61330515,-0.64486665,0.3173747,-1.24724,0.0023809373,6.0753484,-0.61613464,-0.48870584,-0.41412568,1.7824695,-1.7060162,0.04587269,-0.33465198,4.897625,-9.029794,-1.8233032,0.12485357,-0.463558,10.1501875,-3.1035771,-2.2540023,1.4094995,-0.479625,0.20317434,0.15685797,0.81099004,0.61259246,11.836357,0.69753873,-1.2236264,-1.4567037,5.0477424,-27.439495,-0.39866105,0.6777526,-0.5665392,1.1431988,-3.9327772,-0.68374693,1.2662889,-1.6284817,-0.45290437,-6.673105,-6.637881,0.67908573,-0.24002838,4.162396,-0.09410285,3.9875977,-0.649256,0.06772077,-1.2744377,0.5834961,-4.391544,-0.9456283,1.1376305,2.1176348,-1.5740193,-2.2574844,-0.83063424,-0.5811528,-0.3827334,2.5309405,-3.188878,-0.9528346,10.263314,-6.972195,-0.0037877634,0.6666875,3.9261873,0.19276682,8.34469,2.5916438,-2.038733,16.555082,-8.74776,-2.3150659,140.01837,-3.0706642,-3.8535743,-0.10759409,-4.1719127,-2.8629768,2.9499216,-0.73052293,1.0155123,0.2439493,1.6438799,0.8552459,-0.3319168,-0.50998336,-0.6979746,-2.89362,-0.7387951,0.22319575,4.234576,0.40531766,0.024380907,-8.21566,-0.6474277,-0.4336543,-0.18382807,3.6263435,-0.5740468,-0.7019179,2.9058955,0.7116084,0.45072427,-0.33858907,-3.77233,-1.7405467,-0.61769515,-0.31209487,1.2651547,-0.47158462,0.8543194,2.0432713,0.3271949,-0.226105,-0.9009279,-7.266248,1.2177511,0.004083488,10.594997,8.956744,2.0668755,-2.6792297,-2.0705967,-1.8846252,-1.6575865,-1.8708243,-1.2888412,1.4584224,-0.73666376,0.57006073,-0.983133,0.46245122,0.114972785,-1.5680019,1.8652483,0.035453685,0.16217309,-9.3371935,-1.4721434,-0.09954283,-1.2763404,-0.3138928,-0.77130216,-0.5979179,-1.6906308,0.99219614,-1.9768071,0.22030833,7.8432035,-4.0143332,3.3010087,-0.5577922,-0.89768964,-1.222764,2.532341,0.0639692,-0.095155805,-0.2453657,0.5753165,-0.14375816,0.21210897,-0.62404585,-0.34896496,-0.16663642,1.6043046,-0.76758575,-0.09731774,-2.6395469,-0.8058313,-1.8206817,2.18216,-0.330654,71.769455,-4.1417837,-0.6833263,0.3050064,-2.482308,-2.4726002,-1.228816,-3.217837,0.04217717,-0.51126575,-17.251062,-0.36764574,-1.0428656,-0.10130502,-2.0462055,-4.425997,-7.6320896,-0.40479192,-0.2612738,-1.5340712,0.79581505,0.376915,8.327161,0.53985214,3.1430898,-2.8513896,-0.91385597,-3.9182289,-0.57010555,-3.98355,-0.19496688,0.043957867,2.2112463,-2.1168401,-1.2726623,-0.36184588,-4.4854975,-4.820664,-2.177902,-0.02887658,-0.06412615,-1.4412878,1.9700314,8.251556,-1.1494727,-0.28125712,-9.916343,-0.16881722,-2.805867,-0.4107163,1.2808161,-1.6507193,-1.1445384,-20.05179,-0.3214208,0.28384805,-2.1687183,-1.1776167,-0.43920082,-2.7832296,-0.74832845,-1.4918177,-0.6169337,0.9325224,1.6772288,-1.5887032,-1.5096086,-0.19377722,-0.6124272,-0.32638994,-0.58153373,0.6063864,-0.22791676,12.27669,0.14193757,3.299497,-0.075430185,0.2432693,0.80960464,0.37622556,0.116138145,0.6437096,0.20931295,0.43062735,-6.9722013,-1.3296582,-2.227533,5.5021214,-0.5023623,0.64294463,1.5623076,-0.41476348,-17.566584,37.28206,-0.90554965,2.2991557,-0.52059126,-0.45621032,2.504103,-66.48861,-1.8522599,-0.8129474,-0.08030589,0.32686535,-0.68842465,-0.39866185,-0.6471676,-0.0052919826,-1.19407,-0.31893724,-2.0298696,0.8073683,14.797406,-1.6019522,-0.87612027,-0.43807977,-0.13415653,0.20996419,0.055776335,3.2247665,-0.116801664,5.4402323,-3.3490772,-0.34723756,-2.1540675,-1.0598732,0.70276326,-0.67295784,-1.0440376,-2.160086,2.1612494,0.34228402,-1.1539673,3.9797418,-0.37232587,-0.53515583,0.09359476,-0.35708132,1.12792,-0.27856475,1.2532965,-0.18562382,6.2695904,-0.099200964,-0.069716625,34.968163,0.05570927,-1.8001429,0.46373862,5.173992,1.5261923,-1.6330607,0.12835447,-3.0050886,-3.7701883,-0.69959456,-1.268553,-0.39242235,2.0513291,0.2999754,-2.5185869,-11.0656185,-5.471902,0.8203118,-2.335223,-0.42483744,0.390479,2.9971178,-3.0117676,-0.23925063,-6.9573474,-10.884628,2.317899,-4.88356,-11.684391,1.0740498,0.1808415,-0.030149847,1.2228383,-6.3268156,-0.70328146,1.4984316,-0.32344505,6.874926,-22.541193,0.50248873,-0.42352045,-6.903112,-0.2538663,-0.8517721,2.627191,-0.31926143,-61.45092,0.29088563,16.195791,-1.1004386,21.999327,-0.7628594,0.7710897,0.23118378,0.19198424,-4.2276683,-0.891494,1.426197,-0.9346101,0.9102903,0.15121017,-2.1644232,1.362029,0.018050909,-3.1032677,-0.042390175,-1.8727366,-0.57337284,-2.311982,-0.43732387,-3.7699502,-0.33895284,-1.2199225,-14.355059,-0.7527665,-6.8267856,1.5094359,-0.4405188,-44.360405,-0.8719352,-0.289059,-2.3742902,-0.6317943,-0.45490405,-7.5575356,-0.26480538,-0.48526022,1.084557,-12.070818,-3.9643598,2.5940056,-0.7374412,5.8919835,0.14292221,-2.0016387,-2.4063802,-0.13019365,-10.098518,1.0845565,0.6828454,-1.4328401,-0.5746903,-1.064862,0.61733484,0.42313495,-0.27682135,-0.28193143,-1.5689092,-1.1897377,-1.1784109,0.907409,-0.3467362,-2.2991536,1.6114513,-3.0190685,-0.7762644,-0.25957862,-1.3946897,-0.88380843,0.94663584,0.25118813,-0.63757765,-0.42055455,-58.159435,-0.3067437,0.43627304,-16.969006,0.50394255,1.3666036,2.0022788,-1.3302641,-1.355539,-7.810937,-0.43120125,-1.3633692,-1.947409,-1.6922075,-2.3461313,-0.5331376,-0.47827783,0.22091572,-1.1640646,-0.68601465,-1.8873358,1.852747,14.821518,-2.5962589,-0.14479257,0.41213268,-3.619616,-1.2646573,-0.29061186,-0.5769901,-0.26198635,-1.2375515,-0.32038438,-24.797132,-0.6896459,0.417043,1.1981758,-16.108942,-2.8136775,-1.0006188,-0.7861453,0.1779337,2.49832,-1.5233145,0.34348917,-0.53362536,0.63616395,-2.4472072,26.11549,-0.044731967,-0.49808225,2.0579333,-0.6592527,-8.527398,-0.033642568,-0.92729187,1.6893475,2.0163789,-1.9115791,-0.44131166,0.013862044,1.3157004,-2.0691648,7.4170165,-0.38139576,-0.082248285,0.020787224,-0.5793249,0.18782908,-3.8009133,-0.33815327,-1.2932,-3.3515859,-9.335557,-0.37515202,-2.651031,-2.9352658,-0.6160599,1.9826491,-1.410783,0.04706049,-0.78727543,-2.5305479,10.373449,-0.30508193,-0.69079155,7.61557,-1.2037451,11.5829,-1.5201609,-0.7758536,2.969358,-0.15869763,7.310719,-0.6103232,0.085716926,-0.4781052,-2.177632,-1.8900945,1.7422082,-1.3825614,-6.622947,-3.4374068,-0.96416944,0.11759034,-0.87587935,-1.3472562,-11.09139,0.59641063,-1.704217,-11.292128,-3.3203905,-1.2910762,-1.4068984,2.697332,1.4782305,-0.060389273,0.117128834,20.600914,3.0076487,-0.15416741,3.2463713,-0.18230608,-2.7447734,-1.3758883,-2.0930634,-4.201459,0.19416334,-7.2084823,-0.80126286,-1.395195,-9.631282,-4.5300364,1.4202532,1.5704662,2.381693,2.551121,-1.176638,-0.45787397,-0.6157837,-0.7786731,0.12155546,-0.2561419,0.13312635,0.12443427,6.3540287,0.8249465,1.5076857,-0.9077585,-2.300769,0.5489586,-0.75197154,0.70012605,0.08071076,0.41633704,3.6032555,0.44473827,1.3122939,-1.7657925,0.06625873,-1.5042111,-3.1759734,-0.17260452,-2.1518097,1.4544787,15.173398,7.019607,-4.159543,-0.3241586,-2.9907677,0.23759611,-2.9094942,-1.6479418,-1.9148065,3.4248064,-0.78037417,-0.43429947,2.4122937,-1.5153295,-0.9568775,3.8722687,-2.0100126,1.1472968,-0.87548804,-0.4335396,-3.3165278,-1.058505,-0.005375718,-3.7948146,-0.38055888,1.068771,5.271004,-3.0728805,1.9248382,-0.33960038,0.16411905,0.33228594,-0.4165206,1.7712119,-1.0556641,-1.9555541,-0.46446028,-1.15177,-2.6561513,-2.605415,0.054727137,-0.42785302,-0.19245423,-0.880221,-10.611824,9.249692,-0.045121472,15.906926,-2.6605625,1.2849526,3.2834287,0.0061335154,1.6730031,-0.6832694,-4.823018,-2.0834954,-1.0222003,-0.98061764,-1.6132655,1.5629516,-1.4008788,0.19267659,-1.8606848,-0.32599455,3.0683157,-0.3527425,-0.48819566,0.07690691,-1.1375705,-1.1164871,-33.55261,5.0607324,-0.05362749,-2.666206,0.17719267,0.6332688,1.1357938,-0.1083468,2.388592,-0.6849822,-0.38094813,-1.3101102,0.3736069,-0.2466768,6.243032,-2.192926,2.0754762,11.033524,-0.6568262,-0.18903455,-1.7909569,2.1881225,-1.6637561,-0.0199258,-3.8896017,-0.35287786,0.12966844,5.3764052,-0.19194601,-0.24007475,-0.068233564,3.1276875,-0.47436196,1.7111517,-1.3578812,-1.6901064,-0.94415146,-3.1228297,5.161953,-0.04216622,-1.92346,7.170644,-1.6932387,-2.6680584,1.068406,-0.19130659,-0.3120849,-0.35282665,-1.6706208,1.3737475,0.8464991,1.0266743,0.42926225,3.6654427,-1.2495906,7.05844,22.84074,2.1564195,-0.7892842,1.9121096,-2.532687,-1.1317402,-6.701006,9.826868,-1.4699216,-1.6684768,-2.1279387,0.02149783,-4.114744,1.695622,-0.8432002,-1.6953888,-0.0759466,-1.6420307,-15.205656,10.831832,0.06296198,1.780316,0.00911677,0.34282446,-3.2649374,0.2233133,0.739427,-0.8523381,-11.569453,-0.07236649,2.127401,1.461777,1.0477966,1.0776155,-0.028291605,10.039816,-0.098172724,9.423907,-0.11869468,-2.1619148,-2.7074604,0.21245733,-2.805298,0.99732333,5.20412,1.3900489,-7.145089,0.4199073,-0.6809469,-0.1461453,-1.4444164,-2.623576,-4.5697927,-3.758155,0.1846967,0.032565597,-0.28990194,-0.5842542,0.17266114,-1.7866194,0.04612838,-0.9702456,-0.10079302,1.450632,0.33322448,9.727113,-2.5535586,3.4022703,-4.254306,-0.092917904,1.9078306,0.9570352,0.34908947,-0.31071988,-1.06824,-0.65193933,-5.293901,-0.70474005,1.950349,1.1560977,8.042554,0.6090978,0.26973566,0.33487064,-1.2486796,-0.2516139,-0.13654138,-0.8137612,-0.41149974,1.012457,-0.38878506,-0.6559076,0.2592232,1.4917992,-0.29295605,-1.6867151,0.47733635,-3.9326859,0.27778816,-0.60342216,-0.10143252,0.85160726,-2.7643187,-10.739341,3.7424164,3.8779511,0.56124353,0.73275465,-4.6349773,1.5841541,-3.9330022,-1.4087552,2.192505,2.6522493,0.031792205,0.6299595,-0.8187268,-1.2397698,-1.2545887,-1.1872028,0.19668882,1.3215715,1.2087831,0.70594025,-0.13677032,1.6281991,-4.9507546,3.6773272,-0.52438277,-1.0981972,1.3614337,0.8055113,-0.30878878,-0.7301052,-156.42757,2.8358324,-2.605669,-1.0723546,-0.9628494,-0.3397152,1.1568235,0.5683488,7.2889414,-10.287836,-0.7717725,-0.28984606,17.525827,0.45383653,-0.34482694,0.77177745,-0.21819837,0.1609774,-0.4489697,1.3035026,0.90218025,-1.0689863,-1.0683509,9.664225,0.41542885,1.1066533,-4.5370173,-0.6916591,-3.3682492,0.2617882,-2.1198692,-2.3340456,-1.0977539,-0.2962653,-0.7367915,0.40221104,-1.8669664,2.9580808,17.126627,-0.40206826,0.5865803,-5.5160184,0.7488714,-1.045899,-0.37357923,-0.4952578,0.026895486,2.1363857,-3.686861,0.30301306,-0.9263234,0.23350269,0.101427756,-1.3393826,-12.571406,1.1392549,1.7723725,0.43223375,0.37009552,-3.292538,-1.4637474,7.662266,1.162629,1.5498612,-0.5077042,-3.7241616,-7.7856,0.2151112,-3.8108318,-1.2712419,-10.4535675,-0.210435,-0.46187145,-8.223158,-0.623048,-1.9926903,-1.9371616,-17.107252,-6.9193954,-6.2623653,-0.6445826,4.637454,8.738575,-1.1867037,2.0475774,1.9367322,-4.7962227,-3.2605124,2.2275279,-1.4751705,0.15679915,-3.9127777,-1.9699434,-2.0112953,-0.4311871,5.978737,1.0587951,-0.9644521,-1.851672,-0.958445,-0.27156487,-1.370924,-0.38903263,-5.5821967,-8.653002,-1.1414537,0.6164741,-3.6836457,6.8761663,-3.1071367,0.024922343,1.9697884,1.6114705,0.8872345,-3.2899077,-3.3698678,-1.1141033,-0.2628876,-1.7004287,-2.3497884,-0.022953667,0.09091878,-14.797437,1.1944318,-1.6111807,0.96455264,-0.18077907,1.2355704,-0.8420701,-0.7540836,0.04251691,9.554336,-11.588065,-10.233936,-1.1533061,1.838879,-2.2282054,-1.2067317,-4.4609523,-0.52425814,0.04640732,1.026776,-0.17529985,-1.7323207,-2.135957,-16.327358,-1.4238951,8.379726,-8.43645,6.4789367,1.1895652,-0.265317,-13.704547,0.7051191,-0.57256585,-1.2307216,-0.44263223,-0.75535595,-2.2741048,-2.9342437,1.9827456,-3.5388877,-23.830162,-0.5823208,0.6462311,-1.1696686,-0.32059127,-0.41750932,-1.7268426,0.6592327,-1.3932683,-2.8355567,1.5013169,-2.303036,-0.17552602,0.24398035,0.6411044,-5.449029,-21.455362,-1.3837333,-3.4116747,4.2669535,1.1006265,10.966467,0.14648014,0.023909695,-1.4446466,-3.041354,-1.7566066,-7.0512505,-2.4506836,1.3069046,1.541099,0.8002635,1.5006778,-4.681613,-0.6669657,-0.5799233,-0.3562472,-0.6543906,-1.2564383,-0.70896435,-0.6128328,36.89296,-0.9314159,-1.9334959,-2.1296873,-0.05101148,-3.6254168,-2.2625556,-0.11456038,1.7207996,-2.4893656,-0.58668625,-1.1851586,-0.19163272,0.8296357,-0.12900949,-0.60913366,-2.1268904,-17.92468,-1.0608052,-0.4274481,-4.3838406,-1.9832703,-0.34685174,0.60982054,-0.20762737,-77.85893,-1.0192713,0.6518459,-0.57260793,2.1763315,0.5251552,3.2324705,-0.09591916,-0.4737255,1.1306853,-0.22324544,-0.26090816,0.09761305,-1.2824644,-0.4287765,-9.698058,-0.13813503,-2.704438,-0.7367578,-27.559664,-3.8544686,0.09932669,-0.7420244,12.066949,0.2165604,-0.9525571,-0.46694943,-0.7789641,-0.7965957,-1.628613,-3.210053,-2.1480284,-0.7082043,-0.053412817,-1.8681637,-0.38229984,-4.648313,-1.813423,-0.98191935,65.79912,-16.079239,-0.76167357,-0.3448687,-1.0636909,-1.0695047,67.78767,-1.0396428,-0.7084158,-0.5794938,-2.3797014,-0.0077049434,-121.34701,-0.7279403,-2.0380852,-0.041868724,-0.23109904,-0.09821665,1.5471022,0.044978887,0.5109106,-1.1830496,0.6148843,-1.5909754,-59.89886,-1.9984517,-0.3993361,1.0775119,-0.891433,-1.3290896,1.4270247,10.507268,-4.3915954,-1.7142783,1.5205344,-0.5907921,0.1376428,-4.214992,-1.4499975,0.44556335,-0.4196995,0.635517,-2.0917757,0.15874152,10.694305,16.967283,-0.7284005,-0.9806191,-0.8421746,0.19649643,3.5110617,-0.89722776,0.9192197,-15.897151,0.40351227,1.0635167,12.901424,-2.2264683,5.382068,-0.7651769,-1.1485755,-6.9016438,-0.014107078,-0.16850235,-2.0443997,-0.25457883,-0.2057362,-0.6381606,-0.85733604,-3.3635545,0.33216962,-2.2061646,-4.0229135,1.4046164,-0.6174676,-0.92572737,-0.14239685,-4.6824646,-1.0297812,0.6002547,-0.27187616,-0.777476,-1.9083362,-4.3747077,8.339946,-3.2734132,0.065063685,-2.122857,0.74962944,-0.11330526,-0.46566486,-0.78186846,1.4734519,-0.84695655,8.660552,0.43968785,-0.041281275,-0.72653985,-0.59204686,0.95520884,-1.7034847,-0.42081586,-10.063291,-30.25346,-0.49737093,0.9501929,-0.98218834,1.9985251,-1.4838059,-1.1640675,-8.544139,-0.8259409,1.0491552,2.3796983,-0.7975758,-0.91088015,4.3903728,-2.1458821,2.84188,-2.7011821,0.10062497,4.9221797,-4.3778105,-0.9233298,-0.51770115,-0.5831138,1.4487574,-6.3235483,-0.322474,-4.4014654,1.3078918,10.514053,-0.56966317,-0.40833947,0.3717396,-3.540059,-0.11208944,-1.1233416,-1.3540785,-0.4400787,4.8207374,-4.590106,-1.817129,0.19375512,-1.1440713,24.303345,-1.2868928,-0.16173847,-0.15996316,-1.0358092,-0.6399873,-0.66619647,-0.9348239,-1.8061117,0.33383104,-84.714775,-11.374216,-0.2102683,0.1418583,-6.904105,2.4405344,0.14618407,6.139254,-2.3513117,0.3505809,-1.0948502,-0.66663384,-1.117313,-0.8748373,-6.1763325,5.5719285,0.26301458,-15.228448,-0.26135418,1.6940097,-1.080808,-2.367802,0.33897778,4.6237116,-2.084973,-0.4976328,7.191978,5.1969786,-0.2775421,-0.6046236,1.9607549,-0.55450237,0.085155085,-1.6659167,-0.3132018,0.62696314,-1.0136421,-1.0409751,0.25386432,-1.3372967,0.08475047,0.65404856,0.32358482,4.2923474,0.09949262,-0.59507525,-1.6576358,-0.95224756,-1.6126662,-0.075761154,4.2474027,-0.09668633,0.76880103,-0.74766654,-0.20661986,1.9198996,22.497921,-4.662893,11.230424,0.4202383,0.76884,-2.5262535,0.18509161,-1.6109198,-4.199409,-1.5667351,0.4452404,-3.9014556,-0.25103042,2.0212407,2.229817,-1.2644901,-19.788336,-0.29923278,-3.2599454,-76.087746,3.2136238,-0.7682511,-1.2343183,-0.11832578,2.1192641,0.3850048,-0.45322552,-1.2812977,-0.44082546,-0.5153119,-0.6112109,-2.544963,0.36427218,-0.027374849,1.3062415,-8.700341,0.07560486,-2.4691062,-0.69436264,-3.0151272,-1.2925514,-1.4489318,3.5982342,0.27886367,19.939934,0.6827877,-0.4417593,-3.1898398,-0.9104137,-1.6095647,-34.51288,0.89591664,-0.42932233,-0.45622677,6.42485,4.369223,-0.23509073,9.574921,1.4502138,0.9998274,0.44171625,-0.8797085,0.26959547,-0.6399639,2.0177407,-0.21479675,-98.438705,0.0778104,-0.4668773,0.7538598,0.15067285,3.2779505,-0.8686797,-1.185216,-9.464944,0.6022648,-0.4607293,-0.19686559,-5.7300205,4.5809703,0.2822214,-0.56347555,0.59012294,0.20163143,1.4077511,-0.6339031,0.6019571,0.15375264,2.3537476,-1.5265775,-3.64556,5.4342904,-0.95540756,-4.4937797,0.05802784,-0.723447,2.4285073,-2.5312223,-0.38002405,-0.26233768,-1.5703908,505.27652,-255.20193,1.0759653,5.655285,-6.3429427,-4.3272786,-8.693641,0.6227639,-1.177219,-0.36464968,-1.1880875,-0.9995908,0.30370262,0.09808033,-0.44635668,-0.11235302,1.424437,-1.4259039,-3.0930264,-1.0095831,-8.33654,0.13943188,6.380729,6.7272015,8.903958,0.5845762,-5.0030627,-1.4261619,-1.740887,1.6989628,-1.1241014,0.22356717,0.25586984,-31.435265,3.4965343,-1.404627,1.1798838,-0.14368467,-0.48346344,2.0821304,49.081364,-0.19450253,0.7679242,-3.4739914,-4.2770963,-1.4237926,0.8924613,-17.296553,-1.9940068,6.1046777,-2.2456577,0.588232,-1.6829724,-1.540484,-1.0297904,0.22250217,-2.440143,0.52468926,-15.462977,-0.8866717,-1.9419947,-10.538063,-0.62072736,3.8455977,-1.0296531,-7.1704907,-1.4274081,0.1155919,-1.7166972,-5.5213137,-0.30676216,0.90471375,0.806176,-0.640457,-1.0122504,-2.7542171,6.7942963,-1.1214964,0.6126023,0.6738291,0.60137933,-3.3342488,1.4345351,-27.109608,-0.6869286,0.50605583,-2.5351315,2.0072129,5.7652054,-0.32809365,2.5043595,-1.4494944,-1.3948884,-0.43882343,-1.7910448,3.4784422,-1.1443726,6.3405666,-15.673396,0.622511,-1.0671765,-0.50204015,-0.8592396,-6.860249,0.19571887,-4.843204,-2.3128405,2.1428118,-0.2651576,-5.2667346,2.0391269,-1.0518634,-0.5372919,-0.8222661,-0.9616609,-0.7474795,2.1983907,-3.8516998,-1.0239992,0.0548769,-0.003501969,1.652272,-0.46863604,5.594238,-2.0945988,-3.653659,-2.6118941,2.6867125,0.9486221,3.0163918,0.043851025,-0.07531142,-1.942454,12.307212,-2.9816976,3.9030156,-0.62379146,-6.8949504,-2.1867695,-1.6881564,-0.7743154,-0.5157024,1.1857357,-2.7220993,-1.6396126,-5.464691,-0.83219486,1.6386535,-3.2435875,-0.3325682,-3.3902388,-0.46523932,-0.5036308,-0.18844493,0.6953321,-0.057675146,-0.75178254,0.68709946,-2.003782,-0.20388931,-1.4712913,-0.45647654,0.22217463,8.000266,-1.2972337,-8.859729,-0.6342349,-0.5822597,0.23428698,-0.049720798,-2.8711383,2.214366,0.24305362,-0.79449016,5.380291,-1.8191824,-1.5194004,10.56577,0.22660479,-1.8054744,-0.522117,-4.8219686,-1.7407196,-0.756499,-0.22913048,-0.25180537,0.103546046,-1.5022545,-0.76329356,-1.1610241,-0.61606014,1.060395,-2.764207,-4.5818396,-1.3623873,-0.33040527,3.889935,5.8722587,-3.0492847,-1.4013681,-0.92504394,-74.5477,3.2585585,-0.8133556,0.6438873,-4.2761793,-0.46020678,0.2653021,-0.3312872,0.11630002,-1.8867337,1.507032,0.19525382,4.1843805,0.12516686,0.8263262,-4.838333,-6.9321203,-0.2442557,-3.549027,0.8717401,-7.1980667,1.6425796,0.6591674,-33.881012,0.53444546,4.4316716,0.8664955,-0.039494075,-0.60135514,1.002741,0.13698313,-0.749908,-0.5753099,0.0049830107,-6.124088,-0.31161752,-0.24766496,0.919844,-1.0641241,0.2567327,-0.1020422,-0.86178565,-0.64846116,-1.9915006,-0.34237584,-13.862626,-0.47387874,2.331302,-1.6706194,0.93762165,-2.1378868,0.508201,-0.78306,-0.035651304,-2.3289316,-0.2991243,0.2847536,-1.7865936,-2.4670453,-3.3964877,1.4302001,-1.0906626,-1.6904545,13.444148,-0.14072885,-0.59337324,-303.04718,-1.8333317,-1.2132227,0.340809,-0.28198093,1.0980017,1.1405009,-3.0476804,0.5981,-0.31252518,-5.1352167,-1.3226871,-1.0897402,-10.917873,0.12984914,-34.609577,0.75779,-0.11728794,-1.1105615,2.7109625,0.28751767,30.027979,-1.8271632,-0.8681609,9.80157,-1.8768994,1.6503403,-1.7529254,0.37924206,-3.128518,0.49726373,-3.1755178,-1.0507789,9.578863,3.0244446,0.64527255,-0.6209856,-0.14395839,-0.5046473,-0.14686692,-0.23771547,-0.38661715,-0.17989981,-0.8130823,-0.31648672,4.916619,0.045099862,-0.7683565,0.40980986,-0.8475635,0.49120432,-0.04247922,-0.37860838,-14.752049,-0.19618855,-0.48312223,1.7990485,-22.578876,14.322432,0.074848756,-14.953444,0.9111395,-0.5082126,-1.2298217,-0.5034534,-0.14836295,0.58994687,-2.105585,-0.6207808,-3.303951,-0.06747791,-1.2894593,2.886451,-4.4278045,-1.3484375,-1.4245778,-0.8292412,13.299808,-1.8451424,1.385116,-3.1448658,-2.7129107,-1.2538801,-0.23006113,-0.014421774,-2.3152945,-0.45363793,2.293279,-1.1947515,-1.2015494,-8.405172,-0.0936836,-0.65074366,-0.15586321,1.0355315,0.9045727,-0.17080484,0.19915414,3.0284864E-4,-4.987814,-0.56413484,-1.2805283,-0.024781547,-2.3446326,-0.9475474,2.6275382,-0.02373668,-1.0519353,-1.8352212,-6.39052,7.6386952,0.9632454,-1.5347482,-0.31353265,3.5971222,2.7589488,4.073904,4.930324,-1.5486237,13.720278,-0.45475426,-2.2976413,0.34185117,-0.1909412,-4.6167436,1.0658817,-1.2489228,-0.38368157,0.24262846,0.54560256,1.4814858,-1.9262289,-0.0042588245,1.5594765,-1.3223356,-0.4405004,-0.38345635,10.077073,-0.3705233,-0.019435823,4.238511,-0.6347135,3.9601812,-5.6729956,-0.61641586,1.5920352,3.674197,-4.723468,0.22128254,40.512676,0.039732203,0.26312488,20.880028,-3.1628985,-2.4899879,-1.0627208,0.68714446,-0.70348185,43.025486,-4.463944,0.39555007,-8.386324,-0.0027203579,-0.4681961,1.7258348,-7.5468664,-0.044660717,-2.3028781,2.546788,-11.737974,-1.0849322,-1.1811802,1.0900141,0.16145343,-0.9134152,-2.8074832,2.4752698