2.5675466,0.06717253,-0.15005457,-1.2155727,0.012258034,-2.9070272,-0.240594,3.422083,-0.03418809,-0.9586406,-1.825523,-0.36942443,-1.0855204,5.7048874,2.2459345,10.667292,269.45395,-0.28426045,2.5869515,-0.81604487,-0.3928683,-0.03294795,4.2521963,2.3276093,4.2139854,1.3745676,7.0377755,1.3764971,-0.2737949,-0.44961882,1.9792963,0.37445962,-0.8062637,1.2293493,-5.5953026,1.0838816,0.70969635,9.533432,-1.1418822,-1.2102597,-7.9465547,-1.0676311,-6.3081956,1.2900114,-5.099963,0.69360083,-0.6683171,-0.19297591,2.8035786,-0.30650046,-0.42460454,3.9709787,1.94627,-3.4243994,-1.5941151,-0.9059358,0.6977117,-1.115859,0.5193736,6.0226474,-1.9364306,-3.1037908,-5.0095887,1.7277715,0.9416131,-5.0231204,0.2201812,0.4657817,-0.811747,-2.3809357,1.9288434,0.7642128,0.13714263,1.9097108,0.7754665,-24.369194,-1.046883,-0.04342985,3.3231187,-0.30430394,-2.244903,-0.03441617,-0.65540063,1.5934275,-0.024377272,8.218708,-0.2484138,-0.77553135,-2.4818995,-0.4596901,-0.18735278,74.20787,-1.3343439,2.9646814,-1.437975,-6.899458,5.649819,-0.8060878,-5.027193,0.20305839,1.8460032,-0.32413736,0.016328007,0.0010834588,-0.3857487,1.3200426,-0.94007003,-19.216423,1.3246078,0.090754844,2.5515094,1.4805113,-11.874671,0.99417394,-0.1306961,-1.5843676,-2.9643648,0.26702678,-6.028902,-61.05279,-0.04342244,1.4207315,3.340003,0.02930288,-0.9009047,-4.909563,-0.20067629,-0.5864816,-0.88051176,-0.096275434,1.9013674,6.1249895,-20.997208,-0.3157224,-6.6270227,2.0293603,0.48893598,0.102170356,-0.63224983,1.4678041,0.2587498,1.8030062,-0.04208853,4.9171615,1.3209251,181.92667,-0.34594554,-0.7271563,-52.441845,-1.3327599,2.1192915,-2.2688408,0.1220072,-2.1756237,-1.1901826,1.0615586,-0.7211326,-0.9918252,-0.017550856,-2.6633167,2.3735595,-1.6392441,1.565892,-0.2577011,-0.36450234,0.9258102,-0.26064432,-1.3466892,1.7666924,-8.945348,-0.9754616,-0.042669397,-1.2764976,-4.6607184,11.83411,0.5513225,-1.25014,-0.9277545,-1.5451205,-0.3588954,0.37983397,1.1517353,0.37228963,-1.2477587,-1.7064251,-2.1543126,2.2965264,-6.451762,7.992457,4.020717,-2.2182028,5.359389,-3.5859919,-0.51673466,42.29194,0.22777715,-16.760252,-2.4938962E-4,-0.56362385,-1.4026618,1.0418481,0.8866952,36.339542,0.29123047,-1.8385949,-10.636167,1.562281,0.06067435,-77.53114,-0.5557421,-1.384005,0.46684325,-0.5495268,6.9970703,0.38747108,-2.5459926,0.41215104,0.5603331,16.146202,-0.3537201,-0.18128331,0.8845056,-0.99091613,0.4812105,0.35447168,0.27593318,-1.0942866,-8.225277,-0.35171005,4.680795,-0.67533374,-2.5080175,-0.4696186,-0.21057665,-0.40332904,2.3294392,-0.88085866,-0.13729508,-2.9668174,15.059202,5.703055,-2.6754396,-0.23062676,-13.402515,0.6915222,-0.6295672,-2.857543,3.3334558,-1.0802569,5.3221345,1.4321525,-3.7100582,-2.828783,0.29352152,-1.6348865,-2.293456,0.5452633,-0.0018019937,-1.44097,-7.311757,-1.4490525,-3.165882,1.6188565,-6.1827784,4.561116,-0.036509972,-2.1176138,0.74849045,-0.54084235,1.5698986,-1.2554123,-4.096325,-0.12215874,-8.900434,-0.5904146,-0.51287293,3.1798928,-0.89606416,1.2201499,-0.6717756,0.7286004,-3.1371093,-0.6898921,-1.1736958,-1.1419722,-6.170949,-2.6722722,0.82602304,-0.8631942,-2.2402258,-0.8422982,-0.10673431,-0.01898951,1.6230454,-2.917979,-6.219435,-0.9255296,-14.388161,-0.14217287,6.4365854,3.9185133,0.27350807,-0.60676754,-0.3491162,-1.0159187,-0.7065936,-0.40494394,0.03954856,-0.73327833,-0.82678145,0.30186868,0.508795,-27.274706,-2.2292104,-1.138348,2.2898803,-4.398743,-0.1426518,-2.5273488,-13.973692,-0.78947943,-0.69677323,3.570166,1.4366018,5.6307354,-0.12626493,0.1304338,0.2975773,-0.0037784975,4.832148,-18.654274,-0.5400439,-1.2902507,3.9764457,-0.76106554,34.62592,-0.7572629,2.457084,1.1348683,-2.6243098,0.047160916,-1.409328,-0.67385083,-2.8787491,-2.6278353,-4.684617,-0.16700366,0.918188,-0.95977384,-4.9378843,0.52182156,-11.474621,-3.628396,-1.5118203,-0.15812942,1.7383513,37.356472,-0.7653311,4.4843254,0.49847266,4.578258,0.6803011,-0.43167993,4.7906947,-1.3694495,-2.8538802,-7.8883476,-37.085403,-0.95920044,0.12488429,-3.5279558,-0.6652591,-0.078721024,0.76149726,-0.07503291,-2.2764928,10.6204405,-19.887207,-0.1535047,6.201912,-4.240569,-0.2467533,0.61085165,-1.4959581,-0.44324803,-0.8497676,0.6925771,-1.4455807,0.12978536,-0.007964313,0.8989147,0.06562278,-0.65607816,-1.5714384,-0.20466338,-1.6237177,-3.8219476,-6.1716475,0.48806015,-1.3048894,0.5500141,-0.82318336,2.0908637,-0.44619703,-2.0963018,-0.821509,2.2269936,-1.7524171,-0.34992027,-12.042274,15.279196,0.092840694,-0.07856926,-21.763525,-2.1801004,-0.8732321,0.9562863,12.218155,3.006629,-0.71723056,-0.7157787,-5.510331,-0.81408405,-1.0839303,0.3102596,1.7699941,0.02763556,-6.3468866,0.420907,20.172247,3.1157804,0.20345402,0.51852727,2.6011205,-0.88131464,-0.4197942,17.1485,7.678621,-34.214306,-1.2649223,2.0922945,-11.745568,0.7993301,-0.5973761,-0.2098438,-1.046257,-0.26809168,1.107579,16.009407,-0.18477806,0.27470046,-0.14256757,1.4765863,-4.0144715,2.6211166,-2.7725797,11.1327915,0.91259944,-0.4560153,-4.615834,-0.1085348,0.6158371,-1.6491681,-1.8127059,1.6235279,0.6012982,4.0702643,-0.104277395,6.7593474,-0.073158585,-1.0857888,0.75862694,7.90592,-1.2320604,0.7072094,3.7894692,-3.2307673,-1.9728763,1.2928301,-0.4367546,-5.7747607,-1.214997,-1.5388755,-1.8666378,2.1148024,-2.0494523,-0.7388936,-0.86964005,-1.0494975,-0.5118023,-2.1390429,0.18703628,-87.35176,-0.2814322,-0.23093231,0.70514023,-5.175514,1.3088279,-0.578131,-1.8573618,-6.7513804,-5.265951,-5.66876,0.3351733,1.2201557,-0.43103126,0.593963,0.57129014,0.31469703,0.9204492,-0.86215514,-0.12810323,-1.219624,-0.70300204,-1.3366301,3.8123715,2.7418473,0.9158721,-2.3322864,-1.0867755,-0.40631035,-1.3719131,-0.37002468,-2.0409622,2.1312456,2.2361577,-4.713147,0.40886775,-0.34914243,-1.5550914,-2.010407,1.0500228,0.45170802,0.29748338,-0.784818,3.895665,1.015191,-3.9690351,-0.51099557,3.2955997,-0.89999765,3.757892,-0.5131601,-1.1236864,-0.57731116,-1.5539804,1.0611655,-1.1375344,0.61170334,0.3275283,-0.17780772,1.166694,0.9825515,-1.006829,-0.7693538,1.3084664,-1.5400463,-2.8818345,-0.03740102,0.22196959,-0.6727618,0.7422753,-0.461396,-1.0468376,4.1967115,0.032168113,-1.6140745,0.062188197,0.082333684,-0.69369245,-0.4978553,-1.5468113,0.03314804,-0.81648487,10.427984,0.86778456,-0.43597683,2.258925,-1.1952066,4.790671,1.6685821,-7.8554554,-0.21333201,-0.008906834,0.57279986,-2.4243753,-3.0767093,-0.64718795,-1.0216948,-0.32287082,-0.72017086,-2.1104863,2.4817524,0.79058635,-0.96811956,2.0016856,-1.5710908,1.615217,2.0706255,-0.7687168,-0.7722032,39.87594,-1.6737065,-1.1197431,2.9111161,-0.61248904,-0.5453743,-0.30052885,-8.864786,-1.5886629,2.051527,4.633743,-4.070638,-1.032425,-0.9567922,-1.4119412,-1.5771685,0.8716639,-0.9280449,-0.6578955,0.5373068,2.545152,-2.5419416,0.5561099,-4.8927255,-0.6173788,-0.7699828,1.9599061,-0.24578677,-0.8582083,-0.6615374,-0.8108677,-2.296798,1.5823901,-1.6550114,-17.065426,-0.38593942,0.6202386,1.0283133,-4.246249,0.040442266,-4.304755,0.055097528,0.13869399,-6.875601,-0.41588396,0.091116115,-1.5949099,-6.5016646,0.21706104,-3.2382264,1.8688397,0.071137056,-0.17778382,0.66803825,-0.7062973,2.2555482,-0.8803491,-2.2776165,-11.161081,-0.5333886,-0.7426061,-0.5976833,0.07749033,-3.7760978,2.0658076,-1.0458654,-0.6211337,0.6138598,-1.7378403,2.845662,-0.75932735,0.61018395,1.5569801,-4.400399,-3.2256236,0.69147885,-0.102858506,-3.123783,-1.3316003,-1.385038,0.49575594,5.5255756,-19.760883,-1.1060803,-1.6308159,-0.90469044,0.41723034,-3.1003842,-5.304915,1.0022715,3.1566355,-0.8752808,-3.6215167,-2.4408057,-3.6682167,2.6853373,-1.577191,-0.04572235,-0.58728653,-4.469043,1.7222084,-1.2906039,-6.160044,0.77801704,-0.7888127,-0.07851727,-0.16146871,-3.2242634,9.946028,-0.024560899,-2.626309,-0.59506696,-5.294978,-0.876794,0.63060576,-0.52801067,0.39067096,-2.0386598,-0.9835346,-1.1982828,-0.09159382,-1.1042781,-1.0507568,-0.92024416,-1.6567439,-0.3004168,0.003259264,-0.8160634,0.03667784,4.7045503,-0.10056085,0.5585992,-2.9090385,-0.5555221,-2.0102072,5.574561,-1.7310565,-1.1702036,0.1944206,-0.4153423,-0.34897405,-0.5634304,3.9392552,0.018951718,-0.3317933,6.972557,5.295467,0.55148065,-3.711055,-0.63298464,0.331095,-4.8136063,-0.54359835,1.9313161,-2.4172373,-0.19355905,-0.37691346,-10.899355,-4.47549,2.0420055,-2.0411053,-0.80006486,-8.057447,-0.40916,-0.9451438,1.3470678,3.0313249,-4.562223,-0.63871235,0.4494152,-1.0993888,31.225266,32.38108,-0.03824374,0.76962656,-0.6054761,-0.72155243,72.01928,-3.7100372,1.0920504,-0.37097013,3.6463237,-12.087334,-3.7021995,-0.67596245,0.15449075,0.27046946,-1.4003221,0.20147172,-14.133501,-0.7133722,1.5164827,0.8204392,-1.3654301,0.7807212,-4.35116,-1.3444922,-0.15445565,-1.4730986,-1.1300104,4.9169593,18.52814,4.893826,-0.2890038,7.9504642,0.60712516,1.016856,-0.94422704,-0.65386194,-0.753911,-0.58546835,0.28774476,-0.2142607,-2.1525736,-12.599762,-0.10789566,0.75028044,0.60581595,-2.6564662,-3.9196181,-1.1070392,-3.1138983,-2.0808997,2.992675,-0.29303616,-0.0014851834,0.48000756,0.15968089,0.9026282,0.7335923,1.1829759,0.7609025,-3.7912302,-1.200935,36.414005,0.96913475,1.4674696,-9.603807,3.9308598,-0.73785156,4.1921253,2.4222045,-3.567396,-0.3185468,0.2459914,-0.95224506,-2.523648,14.019645,7.0689816E-4,0.069461435,-3.0273025,-2.4460683,0.38210252,1.1109326,-0.60307693,12.603679,-2.55672,-0.3458605,-3.8577335,-0.5966778,-0.30650026,0.17265055,0.20331973,2.4416623,0.8362336,-1.824311,-3.6276128,-0.6184087,-9.920975,1.518344,-2.7789097,-2.4573483,0.354235,-0.2823378,4.283133,-0.19384323,-15.626299,-24.30816,2.6244817,0.89866024,-0.6158425,1.0214385,1.4826746,0.5126093,-2.9489403,-0.053761423,-1.1423213,-0.6309732,0.15933067,0.68381137,-0.1716857,-0.13654704,-1.4885267,-1.0627722,-2.6252015,-0.27965915,0.09478374,0.24209337,-2.7971148,0.6725591,-0.5797583,0.10842054,3.3556015,-0.8484132,-0.7589428,-0.32137382,-5.102843,0.8812887,5.5843673,-1.1200254,4.030243,-1.4293627,-6.8250613,0.5194067,-0.92711496,2.248917,-2.0626118,-0.19107406,1.8738493,-0.6069466,0.33959246,-0.8040176,0.17363948,-3.0269356,-26.484253,1.6903579,2.5201652,0.5412395,-4.7366323,0.17186363,6.6378064,-0.20003344,-1.0449684,-2.9100819,-0.38046914,1.3762027,-3.1670198,12.86442,-1.4990145,0.7675131,5.340619,0.55006135,-0.7748959,-3.4854417,0.18042712,-0.30361825,0.9604799,-2.8327098,-0.17492393,-0.40899137,-0.31261885,-2.667017,-1.4094614,-0.44631168,2.3296168,1.8128364,0.27530316,-1.6678258,-0.13464847,-4.315014,3.1132107,-0.8609077,-0.29400927,-5.191711,5.734643,-36.808212,-0.034570694,-2.4865909,-5.5925293,1.0717007,-0.5419039,0.55378664,1.9542179,-0.31722468,0.6328759,2.3234942,-1.3297538,-0.08107271,0.34737536,-0.77417725,-0.12369968,-0.5347496,0.009578536,-1.9725009,-0.7160114,2.594976,-7.6074605,0.11239617,-0.7370756,-6.1370745,0.2738377,-1.8847933,-1.2284831,1.6315019,-0.6941376,-1.7901856,-0.80916655,0.30673718,-4.4058867,2.1849666,0.56274146,2.3132434,2.035139,-7.340929,-0.04270322,0.7954514,-0.44103017,1.0054928,-0.21302721,26.266762,-1.7540045,-1.3746985,-17.00911,-0.74062395,0.34804296,-0.59846824,-1.5476601,-2.7535,0.068346955,-3.0736947,0.864093,1.8548987,-0.13969082,-1.6161752,1.151182,1.2413532,0.38308415,-0.57321703,9.672676,-0.514792,-0.37560079,-0.48936087,-0.69290835,2.8920949,-1.0449879,4.5513477,0.37269428,0.04784199,0.02640254,0.07592122,-0.2835045,1.6940346,-1.0947266,0.023241378,-6.090792,0.47932076,-0.97761613,0.46935818,-0.37276134,0.09976733,0.11319336,0.3260244,-1.0977153,2.8205435,-0.6372868,-0.16746469,1.7383672,0.12470183,16.71093,-0.46825168,1.3340361,-0.66269886,3.7056046,0.4355071,-4.0600376,-0.97588545,0.2790954,1.3425066,7.536574,-0.9042384,0.23098893,1.771671,-0.842722,0.8067779,-2.2648358,-0.18015145,1.0364488,1.8912989,2.410968,-0.09339511,-0.8193746,-4.1487036,-0.5099842,-1.8654294,-0.34715948,0.3547604,0.005827334,5.075515,-0.08100958,-0.7116786,-1.737662,-0.39879763,-0.9102705,-3.3042848,-0.24271552,-0.32639176,0.32733312,-2.4521563,-0.552562,-7.8360486,-4.224885,-0.9508811,6.458384,-22.697811,-0.21747835,0.6966313,5.9921675,-0.6104687,-0.3319042,-1.3391106,-0.25546065,31.347113,-0.9492332,-0.8494003,-0.30619794,-1.0783516,-4.987823,-1.2882127,-0.048620295,-1.8077024,0.3889473,-2.5790367,2.2843263,1.772752,3.7310095,3.7783015,-3.1556544,-0.8022206,-0.39705396,-0.3590088,-0.3890225,-7.0628905,-1.9978228,0.45107847,-2.6822207,-2.3468146,-0.4759992,5.064796,0.5408805,3.4446733,-2.0880864,-0.76435155,-3.965348,1.959171,4.731893,4.957801,-0.14170839,4.527653,-1.1914426,-0.94951314,-0.54578346,-0.45760083,-0.670559,2.253344,-0.015752664,3.838019,-0.8917737,-0.5852292,0.909286,-0.598164,1.2449042,-2.6412914,-6.6462417,-2.572176,-6.6540203,-2.0273352,0.073004045,-0.17809913,1.6144948,-6.876783,-2.5595186,-0.21094827,-0.018837463,7.1657057,-0.8812147,-0.72632253,6.2631264,1.0316801,-0.84033674,-14.327936,-0.4552558,-0.17516457,1.965576,0.6964809,0.7790078,-0.9001929,-0.60565656,-0.08297712,-0.16265292,-3.7485034,-1.5926182,20.99211,-1.4795151,0.2621472,-1.5801028,-0.72515804,1.0711529,-13.548779,0.14088626,-0.33489907,-0.83747303,-0.15823619,-0.526835,2.1427038,1.0173506,5.1514273,-1.615389,-0.8643518,3.010977,9.640306,-3.849308,-1.0704566,-1.5528774,0.4587907,-0.9323922,-10.651961,1.3846579,4.044022,-0.8368792,-0.42070317,-0.56304747,0.23082292,0.47820386,-1.1722143,6.4735036,-1.1474214,-1.0543444,-0.92650205,2.5444312,-0.69485414,7.6325555,0.4938032,8.70587,-15.8084345,2.135047,-0.6815138,0.7487028,-1.7777957,1.7822533,-1.8813795,-0.68093026,-0.60273755,-1.0924014,-4.8714724,-9.856766,1.3985791,-1.6552898,0.1286669,0.97810453,-9.073531,0.8180556,-9.484631,-0.5121557,-6.9369674,2.9468713,6.682827,-3.5502384,3.7126563,0.12997906,2.545907,-2.9718752,0.47385454,1.1843837,-1.6804252,1.0606656,0.009514773,1.444891,0.71869284,-7.2577586,-0.48862058,-26.491669,-0.7014918,-0.69367814,-0.43335703,3.3410559,-3.503805,-13.5542965,1.4485526,2.1804106,1.8700655,-0.05325791,-5.6304398,-0.6337138,-2.2565925,0.3301331,0.2832312,3.6466386,-0.109766036,-1.4987967,10.62332,0.59500617,-2.230784,1.1674706,-0.2397112,9.213258,-4.302177,-0.5901076,-0.25703734,0.09272189,1.3609589,-0.030916536,0.64026624,13.818165,-0.6204661,-1.2695677,-1.8513113,-0.43698558,0.44977868,0.28596798,-1.8232292,-1.1971852,-0.3986087,-4.316701,-0.14993271,0.89006865,-0.34399915,0.03993564,3.0723526,-0.14700398,0.68158,-0.7572896,4.33896,0.75185996,-2.53911,-0.53729147,0.2104231,-0.2568792,-5.397001,-2.7554274,2.9800067,0.20461498,-0.24513625,0.99909306,-0.14233994,18.627728,2.1143298,-0.6528176,-1.6692472,-0.41652995,-0.33006465,6.365586,1.6046745,-5.3172183,0.09563422,1.0633986,1.2881558,0.2333183,0.3235403,0.007407679,6.274617,0.45588803,-1.1392167,0.36234012,4.1251745,0.17086527,-43.138573,-0.40350232,0.5998374,0.15144248,8.240206,0.37444037,-0.36398712,-2.237145,-1.8555167,-0.3227772,2.2268178,-0.9396217,0.39063662,-0.3292316,0.023203013,-0.9559754,4.858162,0.4589645,-15.623314,1.6388868,0.45623392,-0.833348,3.166323,0.2695478,-0.9712896,-0.46078098,-0.69102234,-0.8385925,-1.8037889,0.074363254,-0.14426067,0.023075888,-1.8668467,-0.02676359,0.7130864,-0.34298757,-0.8783665,-0.82590556,0.15620542,8.563619,17.73672,-3.5842385,3.7300558,-9.135215,0.18771335,-2.5899758,-0.4949476,-0.5754072,1.590471,-1.693284,-0.3875782,-4.968269,0.17938013,0.0139728775,-0.7174362,0.0621261,-3.98838,-1.9903791,-0.691668,-138.61215,-2.515682,-2.3241324,-0.3179484,0.69601196,-1.6050932,-12.49166,1.6006474,30.818846,1.8220878,-1.0583669,7.868315,2.1273365,0.8556777,-0.62163085,-6.344836,-0.5549741,-0.06256846,1.4513656,-89.30035,2.4174674,-0.8009547,6.825888,-1.1481864,-6.485507,-1.0124729,0.39684644,-4.05598,0.27335554,6.9414535,-3.7252107,0.3257074,-1.5401592,0.033389587,5.7874794,-3.1019106,-1.5674288,2.9199395,0.18705793,-0.5210426,7.1624093,1.3055153,-0.17661172,-0.4323256,-0.70081705,-0.41014704,0.26231167,-3.4515445,-0.39538863,-0.28071117,-1.5401995,-0.19358261,-0.41224858,3.7891004,-2.5546641,-1.7804201,-0.2562579,7.252123,2.1272416,0.9697121,0.17302193,-1.5516655,-3.8338864,-2.8671336,-1.3021499,-0.39119533,-0.81950456,19.47217,-2.2416477,0.08847618,-1.2658169,-7.966218,-3.3701086,0.17701395,-4.986679,1.9454819,36.66195,-0.44426703,-0.4564163,6.701664,1.0386902,-3.323468,0.67310756,-0.7526183,-0.68316543,-0.1947284,-1.9195354,-3.408616,-0.34494174,0.1950777,-0.9502378,-4.3054304,-0.30832198,0.3271251,-4.593197,2.8456573,-0.54674166,-1.0010283,1.7633352,-0.71140796,-24.501225,1.3459816,-1.8621339,0.61676395,0.85739255,0.9859146,1.4542339,-2.0453634,-1.3405625,36.217617,3.0994308,1.5392953,-0.2685285,4.0236144,-0.12819761,0.96779794,0.62770075,0.44248837,0.24619584,-0.8259772,-0.029047765,-0.6770093,-0.37413988,-0.20642854,-6.250277,-3.4043,-0.27225426,-0.7636984,-0.41878703,-0.456212,-1.5049616,-0.2190111,-0.3116142,21.569386,9.0454,0.36575115,-0.09433791,-2.1531653,-2.0240948,-14.335733,-0.688543,4.962771,1.7223154,-2.7042246,0.05163332,-0.06643144,1.1615419,-0.9552018,1.3676126,-0.018821651,-2.2478933,-3.679909,1.3503153,-0.026982026,0.9062313,0.9787159,0.704871,-1.4682262,9.777862,-0.8976785,3.80381,-0.75026584,-0.8398903,-0.62699044,-0.05351317,-1.0427876,0.7159126,0.87990004,0.4519989,1.9901536,-1.4525868,-0.1289574,-0.5688108,-3.1702359,9.140993,-5.0257716,5.9715266,-0.25030592,-1.2564257,-0.2360138,-0.53963685,-2.4233277,8.942144,-1.149963,-1.0464541,-1.4868674,-0.6526492,4.241064,-2.3341906,-2.060206,0.52162635,-1.0878569,-2.073755,-3.011718,-0.5215472,6.369712,-0.057201337,-3.1150713,4.068777,-2.8801775,0.15698889,-0.1847205,-1.261558,-321.79102,0.20352268,-32.9152,-0.2891997,-24.172264,-5.4177876,-0.3277952,5.6476192,4.6408906,4.1517935,3.991238,-0.4828194,1.4507431,-16.60964,-3.6533928,-0.25289014,-0.70991457,0.70398736,0.11106049,-4.9021125,-0.1827764,-2.4786499,-0.76712775,13.178584,0.73445326,1.6184262,-8.646557,-0.24459994,-14.37865,-1.0895602,0.82062054,-0.4087684,7.708631,3.0053377,-1.1496023,1.1241236,-3.9798772,-1.9480498,4.1248355,3.0782657,-12.019499,0.16379772,2.1782923,-0.7168076,0.8766486,-16.519821,-0.68622756,1.0546056,-0.26054263,0.037317976,-3.185158,0.46298566,-0.7489873,-0.06764986,0.9078991,-0.35079163,-0.32291123,-11.883432,-0.54151857,2.1211963,7.9598923,-0.4594932,0.10555053,0.48709667,-1.0892966,-0.7841289,0.3455032,-0.49904135,1.8057936,-3.4700453,3.8511882,-0.54588974,0.3355701,-1.3734155,-2.1435134,-4.4267383,2.4504926,-7.9687114,0.22436388,0.05142429,-1.7577698,-1.1093824,0.4727988,-0.76888824,0.2079314,-3.2812476,-0.6817319,-0.742031,-0.6058193,1.6996863,25.097265,8.084389,-0.7945506,-0.7262368,-1.1960164,-0.6594695,-0.34706932,-2.9437556,0.90606785,-0.3528276,0.07039173,-1.090984,-0.7032446,-2.901292,-0.6602001,-0.26958165,-1.7554436,-1.3093598,0.06851249,0.7849395,9.143801,-1.4763368,0.38562614,0.15318102,-0.3096986,-0.6667192,0.14345756,-0.6094208,13.841314,-0.5735536,5.9330397,4.0681963,-3.4305825,0.7761032,6.627113,-0.4721779,4.464218,0.21367235,-11.563471,-0.8439505,0.19663353,-3.2186344,-0.9888184,4.591134,-2.8656046,0.94914097,-0.45002306,5.086697,-2.3167028,-1.6957295,5.375581,-2.1332743,7.513294,8.053673,-1.2115163,-1.0728359,-3.45091,-0.62753725,19.838379,-1.7855514,-3.0746284,2.098021,-1.5879014,-0.2866911,-0.052435204,-0.20671253,-5.7257133,-1.3056383,-1.1942255,-1.2766722,0.14384244,2.1650271,0.57001793,-0.8234479,0.20488778,2.8614075,-1.232413,-0.44654727,0.28511906,-3.2295244,-0.45499095,0.02784872,-1.947243,-1.6289023,-0.40030727,0.17140236,0.23897073,-2.3683813,0.29806867,27.436613,-0.6068268,-0.18891817,-6.7265897,-2.6908646,-0.04590503,1.4441583,6.1122127,-0.34821513,-14.628573,-2.7464373,-1.5854039,2.231035,-1.0714045,-0.81292415,-4.315914,-2.3092952,-1.8989398,-0.7020415,-1.5012012,1.4043485,4.422028,-5.2069583,0.1733267,-0.32838684,0.83580697,1.2292451,9.919945,-6.7806263,-1.6323237,-4.106834,0.20750144,0.349469,-4.1333184,-1.5863259,-2.218271,-0.013825754,6.979241,-0.6242071,0.6947576,0.30075118,-4.4664106,-0.4751436,-1.1248771,0.04357678,-0.11298948,0.08872959,-4.1295094,2.0292518,-1.5886564,-0.13916747,0.97027165,0.66231614,0.30598065,-0.38770086,4.9677634,6.1547794,1.4704798,-1.3205199,-0.021057606,-1.0362988,0.5690031,1.8860095,-0.3762692,1.1007736,8.223594,-3.242416,-1.3393656,-0.34668365,-15.510168,0.46377438,0.8907405,0.5238019,-1.6415977,-0.64088154,-1.7817955,8.03303,0.81899446,2.0986478,-2.5982969,-0.732675,1.1025493,1.3595616,2.540193,0.6645473,0.29694095,0.45231944,-0.065270446,1.31079,0.15410842,0.3513352,-2.5336583,-1.237662,0.2571612,-0.11160371,-8.165358,-1.213286,-6.249641,-1.5123441,-0.69933325,2.0546038,-2.517281,-0.5624004,-9.186478,-2.5921876,-1.1254675,-0.5076569,-4.63816,-0.7517341,-0.3280514,-0.48770022,-1.5900077,0.23486225,2.7178385,4.5789447,-15.090135,0.5940608,2.197342,55.114384,-2.6302168,-0.91122884,-1.3829069,0.41937023,-0.6413915,-0.34921286,-0.8014957,-2.9624972,0.20042357,-0.84878284,-0.6985295,0.20427029,-30.350622,-6.703178,2.2471218,-0.90339863,-6.6120744,-2.7015095,-58.56073,-0.15293178,0.3808973,0.07094903,-2.7582943,-1.0098366,-0.88503534,-2.7570443,-0.04663437,0.36987117,0.080451846,-0.5347279,-4.6293225,-1.2468888,-13.08029,-1.4186302,0.10004805,-0.605762,-6.240302,-1.0667622,-1.1949772,-1.4985474,5.451943,-3.2065325,-6.681213,45.780346,-12.889723,1.4622467,-0.16950735,-0.24292772,13.721961,0.12074843,-3.079746,0.17414175,-7.6732073,-1.1181598,-25.905136,12.252608,0.43648422,-0.31241503,-1.7545071,0.2344332,-3.1563776,0.4108959,6.8958807,-0.4977348,-0.4040074,-1.41401,2.2175198,-1.0247706,4.1620016,-2.6705616,0.5944276,-0.71640193,-0.32987335,0.48052084,-0.06702156,-2.1563087,5.083498,4.0354843,-1.2489909,0.2276589,-0.044011198,-0.32636642,14.201246,-0.022373773,1.1373165,13.042965,1.4680519,-0.3529428,-0.7863845,0.6909669,-0.1626448,-7.000014,24.07282,-0.34344566,-2.4925761,-0.22295827,-1.8151729,-7.2323294,-5.1661906,0.06388704,-0.89949787,4.969753,7.4017353,5.1782503,-0.54637265,0.16271743,-0.2518412,-4.1688814,-0.532158,0.27594748,-2.674344,-0.40588763,-1.035377,0.27115768,1.2382746,4.7648487,1.659944,-11.557641,19.458353,-0.8080261,-0.15350036,0.4995474,-2.525296,-1.0152766,1.4087243,-0.8801333,2.8145058,-0.31082383,-0.66198355,-0.25954366,-3.7989817,0.07132638,12.055735,4.866822,2.969341,-0.7807606,0.21357572,0.81705993,-3.6765995,0.7155044,0.5478696,-1.0729854,2.323993,-1.0256046,-0.32646662,1.7594905,-0.8020211,1.5070857,95.677185,-0.036476273,-1.1536353,-1.151688,-0.078893594,-3.829556,-0.35942248,0.29950514,-0.09703234,3.316958,0.54767,0.3840014,0.074312806,0.7513032,2.7517693,-1.7451037,9.076953,-0.5596303,0.5331112,-0.6255145,0.3633359,3.2167814,4.7035384,0.16882166,-7.080044,4.049905,0.04498674,-0.92674196,0.167489,-0.21277465,-4.525119,-2.0004208,-1.125087,1.0242084,-0.4379114,0.45126066,10.513672,42.120213,0.120070636,1.8762964,3.4047291,-29.544682,-0.060725074,1.322103,-23.95251,-1.0698768,-7.6552505,-0.21455269,5.3496504,9.187627,0.44459277,-2.1581137,0.41359732,8.767827,0.092939906,-0.6518957,-1.3060552,0.43708932,0.39746192,4.329269,1.4257168,-1.7305276,-0.88972896,-0.754853,6.019849,-19.720886,3.7550805,1.6364993,-1.2531078,0.34012386,-4.4803905,-0.62559193,-5.7277455,-0.17180012,-0.28813082,4.026742,-0.31789327,-3.113677,-0.26653188,3.9747827,-4.179836,-4.4194684,-3.4394672,-12.958928,-3.4365563,4.278209,-2.2316093,-1.8008837,-0.37854502,2.4671376,2.8322418,0.26419476,-0.51477015,-1.2740693,-1.1812335,3.1475625,0.10686296,2.4418666,0.013741175,-0.50535583,-0.5129025,1.3205978,-1.4006475,0.16478968,-0.11874441,-0.18997127,5.919818,-4.636387,1.8467952,2.0848017,-3.14924,-0.99475986,1.3811251,5.240338,-0.94285166,0.11075431,-0.23894554,-1.0936148,1.8201791,-8.629679,0.34044433,0.9756181,-0.19511725,-0.95778275,-0.4632314,-1.3508086,-1.0797842,-1.0883483,-0.33951476,0.14398278,-0.8198998,-0.8733268,-1.4152008,-0.05313617,-2.2744696,-0.9469557,94.20783,-1.3222673,14.504216,-0.13608134,-1.0254644,-0.8836002,0.19789629,-4.8820276,1.3573895,-0.35226578,-1.7751642,-0.8262886,-1.3152778,-0.18399987,3.9733322,0.09373391,6.543059,-6.729494,16.704853,-0.3827029,-0.2503008,0.72922164,-0.1348928,0.54707515,-2.5717204,27.948164,24.667086,-0.62743306,0.6784414,-0.536352,-0.15453456,-0.31232646,0.08976928,-0.6174907,1.1421647,1.3050418,0.8138169,-2.932321,3.0253983,1.151278,-1.4955065,0.34182042,41.96418,1.3715692,-1.1596158,-0.98882496,0.64594537,-0.58131725,-0.6128594,-7.555793,10.2742815,-19.94732,-1.3359413,-3.1600716,-0.13147031,0.94828063,-0.9742465,-0.9322947,0.44389752,-0.009997166,1.8905308,-1.6323552,1.8789811,-4.4807067,0.96210986,0.20527537,1.8935218,-0.48610324,-0.35675448,-0.75938714,0.48410425,-0.32393706,-0.6057086,6.9916563,-5.8037777,19.756138,0.15188178,0.108176075,-0.003060657,-0.7339831,-7.6717334,-0.112427175,0.7262455,0.27305907,-2.3518429,0.8510674,0.6078552,-4.7495413,4.271965,-1.1597003,-1.3583368,-17.350063,-0.6058944,0.9125384,-4.5214896,0.4154499,-6.9643583,-1.6119236,-0.09288938,1.043259,-2.2136524,0.9054274,-2.3199267,2.2142622,30.32375,-4.9054966,-0.011797558,-0.071498215,-0.100029975,-0.58137953,0.31112972,36.764614,-0.87045366,-1.3918386,1.7904966,4.621632,-0.1736567,0.35153976,-0.9848932,-3.1754978,-1.780677,-0.66313285,-1.946838,-1.1438771,0.7563871,-0.32313886,-1.2580997,0.08908284,11.183495,1.6411973,1.4632981,-2.7417393,25.460129,0.78583825,3.5823112,-0.3908851,-0.61846054,-1.9492564,-0.5025777,-0.17462888,-17.627731,-0.5460934,-5.4760847,-0.61889994,0.59783566,-2.72265,-0.3667683,-5.84955,-0.848287,0.30221397,6.4700723,-4.471529,-4.038222,-2.3426266,5.6568136,-4.5554714,-0.841223,0.1679321,-0.63891107,6.6801496,0.16406868,-0.7215072,-3.0460992,0.91240394,-114.01265,-1.5859886,0.951448,-0.83017856,5.9971037,4.8189883,0.20588249,3.585599,-0.9330581,-0.32955706,5.2991695,5.0534196,-0.021140378,1.7533697,-0.47624364,-1.5469515,-0.48278347,-0.9916441,1.3226764,-4.425803,-0.8807389,-5.957236,-1.0837665,3.341048,0.05513914,-0.8889389,0.038090855,-0.13681813,-0.26000476,-0.43558306,-4.4473205,-0.107224755,-1.7228496,-0.036882482,-4.0002027,0.03083532,-0.3822588,-3.624775,-0.9922545,4.1955857,8.898638,-0.70046073,-0.5745902,0.94388497,0.106616475,-0.64863557,-0.77065814,0.56876796,-0.55901355,-1.3748748,2.168874,5.010437,-2.0177677,0.11482755,-0.6233262,4.7226276,0.53125286,-18.59127,-0.08001997,-0.785374,-1.207657,4.785474,-0.13582885,-0.54690707,-0.80791336,-4.384754,-1.3105952,-5.508206,-0.25752518,-26.109152,-1.6284595,-2.354488,0.48043206,14.379022,-11.904886,1.3444724,-13.074725,-0.95876515,0.3697965,-1.1368479,-0.40966746,0.66495675,-0.33889204,-4.180504,-0.4738271,3.0305943,0.83065605,-0.044391997,-0.60350764,-1.6327897,11.756654,-3.2729173,1.1171647,-2.2268596,0.96472096,-0.063545525,0.17777257,5.1220894,7.398973,-8.97667,0.039170187,-18.775587,0.031946328,-10.6517725,-1.8667383,-0.9062376,-7.891516,-1.5864459,1.9700124,-1.3140527,-0.2643956,-0.5624973,-1.4096642,-0.7920769,3.7395403,-1.6476833,-1.4209936,-0.9844543,-3.2367096,-1.3251116,-0.5591371,-0.51735044,0.081695184,-3.847386,-1.2766134,-1.7794805,7.3357644,-0.7916234,-0.83962876,0.3130824,-0.666098,1.0989277,-0.8865715,0.49370104,-5.996957,-0.3148798,3.2306917,5.024693,2.414575,0.1250826,12.503901,-1.0807719,-2.9377675,-2.9421093,1.1384504,-0.621493,2.7052574,-0.16146575,1.4867897,-1.2688136,-0.75194424,6.654125,-15.293038,-0.23621309,4.7366395,6.1648617,3.5033014,-1.0998739,-0.18110421,-3.3028688,-5.77677,13.970122,-0.44303936,-3.942816,8.823475,-2.19149,0.8735479,-3.7799191,-0.17963275,2.6105516,-1.1654452,4.113339,0.6086483,1.2384595,0.033024713,-0.2261106,3.203718,8.82214,0.83780354,6.987984,-1.2215803,1.5603147,35.119152,-0.5187344,0.8641561,-1.6693852,-1.3789207,-1.1041081,1.5125713,1.3273547,1.5048625,-2.6555998,3.6972818,-0.19158854,0.4322567,6.7389555,-0.83090043,-0.18914908,1.7546372,0.81108457,-12.0123825,0.6034349,-2.03412,0.0115561485,0.27181545,-0.24290682,-0.6713464,1.0647475,-0.25366366,-0.5781176,-0.615223,0.26515132,-3.7206314,0.43317914,0.35591653,-0.02973441,-0.3066232,-1.3797259,1.4972954,-3.7642376,2.7893538,-3.6088152,-0.092376605,-0.13250798,6.0599375,-0.10644515,-0.7986023,-0.47885725,-0.544011,7.2975407,-0.99467146,3.3911185,1.0443408,2.905789,0.23912239,0.66777,-1.7175584,0.124970935,-3.7046883,-0.59460694,-2.5953698,0.41903853,-17.27459,-1.0116184,-0.33474553,-4.179706,0.13971946,-1.5706207,-1.2598743,0.88396895,-0.8682975,-0.015994493,-0.8250777,0.36688584,12.398384,-1.7605693,-0.31994557,-8.550184,-1.4962449,-0.18846595,-4.157532,-0.6420736,-0.5261762,0.11607315,-0.5225918,10.770076,-10.010043,1.6576749,-0.11551106,-2.285234,0.5319236,0.095261276,0.1693484,-1.8173671,-1.6057243,-0.4436783,-1.8886988,-0.118768215,11.316326,-0.82031286,-0.7909558,-4.148286,-1.5908726,-0.15169594,-29.783836,0.08094874,-3.033612,-5.711804,-0.76007605,-0.9234333,0.16570663,4.863229,-0.7327777,-3.0245025,0.23879144,-2.6479456,-2.695873,-8.244101,0.8037809,3.1405299,0.5874298,0.26992357,-0.16525225,0.4059482,-3.9801364,1.076435,2.1466594,-140.70511,-3.7203133,-0.005302793,-0.24117784,-0.25830933,10.232603,-0.5793312,-0.80013305,-0.6332351,-5.6356425,-1.4404076,0.3804921,-1.3819256,-7.7130723,-1.7295928,-2.0767062,0.2395369,-0.43482935,-0.23049112,0.26975912,-1.2799356,-1.6383294,3.8574157,-0.09285869,-0.041480847,8.1852455,0.7316182,-1.707566,-0.6299251,-0.04143644,-4.6071043,0.7027606,1.944634,-5.2401066,2.201335,0.48626143,-3.2251623,0.017313838,-0.28677684,3.4041293,0.8186242,-2.1978683,-2.4586518,0.45825648,-4.435943,0.40259182,3.1009622,-1.4067158,-1.3090075,0.074716106,-7.681179,2.0837083,0.56320125,-1.6442679,5.463335,-1.1435207,-1.8311249,31.692726,-2.1755817,-10.552837,-0.56070286,3.6871374,-0.5165554,-4.132441,0.19277233,0.054261614,-0.53448474,-1.3829348,-1.5800481,-0.6430558,14.838818,4.7382865,0.413163,-1.9381945,-0.034761652,-0.32810357,0.08546078,-0.13656732,3.9085853,-0.50242096,-2.7202873,-2.9379394,-1.4980525,-4.207827,0.1660344,-21.455698,0.08778034,-17.700218,-1.2034023,-0.84648645,-0.8573378,3.5352457,0.57945293,-0.5451283,-2.9192803,-3.2783358,0.30736956,-0.47276202,1.1069902,1.4008095,-29.114893,-2.0509431,14.094206,-5.8194747,0.052488193,1.6921434,-6.2151766,21.657661,-0.026087146,0.5334175,-1.4203597,6.2377667,19.277405,0.15095544,-1.3823829,-0.5614802,4.099255,-1.9283707,-0.9811175,-1.1852032,0.7952262,-1.6212856,-2.138122,0.2813303,-1.1123707,-0.8965984,4.7754807,0.9434422,-0.7242146,-0.3039853,0.5078212,0.31887046,0.8438529,-12.544585,-0.33496597,-5.3239326,-0.65501624,-0.85686576,-0.54605246,-3.2028003,-3.9335206,-0.63182163,1.4754642,-0.18030481,-56.95563,1.4629515,-6.935457,-2.0056725,0.54197556,-4.3555355,-0.010449102,-0.4272015,-0.9339653,-0.17906883,0.17914845,-1.548356,-8.708908,-0.266684,0.7614669,3.0840538,25.758333,2.1827164,-50.373253,-1.6212518,0.55052143,-0.7826117,0.18097666,-7.2736807,-0.2398378,3.4887564,6.3609967,-0.37716353,-0.7084632,-1.2324519,10.743219,-13.178629,0.041425668,13.300067,-0.6694936,1.418279,-1.5005575,-0.55322826,-5.8813715,-5.133567,0.32265377,-0.34871396,2.6252291,-0.60730207,5.6071405,-0.4130463,-2.5483527,-0.39363408,-26.892563,0.8101912,-1.65043,-0.22319873,-0.39148954,1.6260148,-1.6345308,-0.057288,-0.049327947,0.41897777,-2.1157963,-38.220547,0.07998262,0.3923422,-2.4988084,4.8156643,-0.6077578,-1.6021268,-0.7748769,-2.3536103,-1.9825137,-1.1923158,-0.0924091,-0.93408036,0.95361924,-0.38760573,-6.2267575,-0.38097104,0.0037602335,0.5412207,1.3785077,-1.8899866,-2.0039058,-0.019472903,7.128257,-0.5258147,-9.065363,9.22533,0.80839425,0.29644057,-0.09728067,0.87784815,0.053492077,-1.1033854,-3.9723501,0.386543,-4.1212335,10.543365,-0.9667268,1.1813477,-14.706792,0.94600827,-0.07342716,-5.0285506,0.49055806,0.7009986,-5.229732,0.09748904,0.26496434,0.65115535,-2.9982624,-0.9298649,0.41851184,-0.16595218,-0.5968421,1.5164986,-4.0366664,-2.1181154,-1.2851896,0.23974238,-0.1171895,-1.0331621,1.5697383,-0.023743443,11.694868,-0.16823314,3.929777,-2.2302582,-0.6987086,-0.024976978,3.85523,2.071438,-0.87215316,-7.216464,0.28740844,-0.62773967,-2.1409652,-0.5103737,4.440278,-0.15931658,-10.711825,-4.2518477,-3.7293415,-0.9760994,1.8802743,0.1287569,-0.056485333,-0.9572529,0.6975179,-0.33365187,-0.6432858,1.2629347,0.826864,1.6283667,1.4746034,-14.729293,0.5264133,-14.020449,0.73283684,0.05097734,-0.00955332,0.82640636,0.5764567,0.4786318,-0.065392524,-1.1728483,15.819793,-14.202766,-10.638651,3.4427693,-1.8351598,1.1656324,-0.33662632,2.5422838,1.1894455,-20.892935,0.6006303,-1.4066154,-4.0661707,-0.8298715,0.89461845,-0.24603717,-0.49571586,2.0574493,-0.28148958,-1.0816603,-0.2816169,3.292914,-1.2752229,-0.31744832,-13.819727,0.33625382,0.0749491,3.171072,-0.23678616,-12.744987,2.193769,-0.1587516,-0.4622542,-0.7469845,-0.17061633,-0.0077567697,4.05109,-0.8902895,-0.17155287,-4.391057,5.589311,8.888016,1.9242138,0.72415024,-0.6755996,-4.3409843,0.4645794,-0.9817784,0.5125312,0.2458803,0.6432178,0.0788759,1.7895691,8.975445,0.38583624,-6.368478,9.6734705,0.925083,-15.161412,5.4180293,18.41428,20.964233,-0.16605689,-0.2710651,-3.0992942,-13.470511,-7.9263277,0.4845925,0.9586063,2.1829045,1.021982,0.92330664,0.57851297,1.8738143,3.05231,-0.4870422,-0.41707453,-5.1892996,-0.82085776,-0.29185307,0.609561,-1.0501537,-0.7821926,-0.49232692,1.65593,0.4608125,3.7334108,-0.63040596,-2.2957969,-1.5016508,-0.0989658,0.697515,0.40958914,-0.9453214,2.1247694,-0.82436126,-0.2693637,0.45283777,-1.6419078,-0.23325193,0.5740855,-0.44878852,-0.9400136,-0.7579663,-0.3705658,-25.812632,-4.113716,9.988132,8.070087,-0.38393688,-1.2694211,-0.9328138,0.57588035,-0.385465,-21.791174,-0.34255764,-0.27250302,-16.767647,-4.8880024,-1.2370764,-7.15232,-0.49777952,0.23534097,0.061772797,-1.2751197,-3.8411968,3.9608827,0.13942029,-0.5023515,-0.50255704,-1.3955698,14.306255,0.09468348,-0.86595476,-0.860548,-1.1544857,0.35084596,0.4851879,0.3969438,-0.40182358,1.9535359,-0.130608,-7.836388,-5.1226673,-95.54425,-1.0634663,0.6664578,-0.29638,-0.7668961,1.543357,-1.6553582,-2.3652685,-0.68453836,-0.09718024,-2.283426,-1.8002464,-1.1816586,-1.2727445,0.95511115,1.7194963,-0.02314198,4.5438786,0.45337436,-1.108068,0.9447404,-4.201789,-0.084724404,0.19717121,1.728992,-0.7467655,-0.35365278,-1.6208267,-1.0119746,1.9498103,1.9378792,3.0531034,-9.71727,-1.4854437,-2.282817,-3.06321,0.62747383,45.66733,-0.012469314,0.34973812,-0.44070497,0.12309019,-0.35841477,-1.1353333,-0.9855064,1.1257807,-1.2405018,-0.32239422,-2.787548,-1.9684111,0.092161074,-0.39176685,-1.5603547,-1.5910565,-0.60213536,3.8260293,0.036823437,0.8134065,-1.5426394,0.8079552,-0.32240337,-45.225266,-0.084985,-0.2454077,-0.78444326,0.0717765,-1.104859,-63.37825,1.3506734,-32.696182,6.6766315,-0.075336695,0.8614713,2.5040154,-12.441763,1.4278041,-0.15219924,-2.4883904,3.9574578,-10.762448,-1.0091718,-0.6113492,-0.7422157,0.53044546,0.33290216,-0.22963713,-0.7187317,-0.5699119,-22.651604,-3.4361384,-0.20691633,-0.47208035,-8.53898,0.34800243,-0.56974244,-1.5428835,-51.04039,-43.210773,-0.35280305,-0.65232366,1.3096943,18.170265,-2.0232189,-2.785304,0.20360555,-3.6164784,10.301959,-3.092415,-1.0462995,1.390457,-0.76068133,0.27599794,0.5482843,-0.7250428,-0.5492107,-3.3144665,0.9461162,-0.97991973,-2.835248,-0.7314633,-1.0320781,1.5971031,0.92716503,-5.526514,-0.3790041,0.37229317,5.7170687,-2.9880762,0.29607973,-17.871101,-0.1530204,-10.981658,-3.228327,0.29687312,-4.7348886,0.90545976,-0.8059674,-2.0524664,0.6675817,0.27067405,1.0212028,-0.07965653,5.1497335,-1.4894606,-1.8745947,0.68724114,-0.47334218,-0.30006075,0.54162616,27.953829,2.7127066,-13.307908,-2.7779026,1.5565993,1.2397683,0.7328024,-0.4100058,-0.25090247,-1.2202272,-3.603209,0.20485033,113.36766,-0.4245493,-9.625256E-4,-12.960489,-0.3842312,0.8125658,-37.258896,0.07178343,-6.1744723,0.36201084,-3.2474542,-3.1233804,-16.898779,-7.507229,-0.13848676,-1.3181233,-0.13423711,-0.74383867,0.38499779,-0.15375659,1.6646469,0.8487905,-0.027472258,-0.18714759,-0.41960946,0.040974796,-5.383211,0.48415157,0.3119256,-0.6766047,0.15786599,0.5451054,-0.7257948,-0.417079,0.7711992,-0.09624094,0.037035752,-0.06622441,-5.5121064,-8.416017,-0.5578344,-1.145061,99.73703,15.273575,2.4789324,-0.5106617,-3.2377553,-1.2140085,1.1267174,-4.277308,-0.7799554,-0.80902386,3.2792847,-5.841657,2.725141,0.7568197,-1.674856,-0.54557216,-8.354199,0.40518442,1.8753598,29.496492,1.0716089,-0.5239737,-1.5412759,-10.27626,2.4062936,6.182889,-0.19750416,-3.876723,-0.468358,-0.16195206,-0.69845104,-2.948265,-0.7148944,-11.158062,3.9826112,3.8927298,0.19397658,-4.973422,5.063048,7.648942,-3.6665552,-2.2630024,-2.3019602,-1.8831801,0.19536507,-1.2172258,0.31312442,-0.30775896,0.19850183,1.0206789,-8.447517,0.45462903,0.008506194,-12.422569,-0.15382405,-5.054621,1.3277985,-3.873132,1.452574,-0.53527015,-0.51416826,-1.8472759,-2.5080836,-0.17145464,-27.02353,-17.825592,-0.042911418,-2.198873,-0.12064613,-0.14717452,1.7199368,0.7251767,-1.0551487,-0.5873162,-0.96625596,65.235695,-0.45415676,3.2517242,-0.41238278,-2.8762958,0.16121034,-0.48458946,0.3846239,1.2574278,-0.88442814,0.22345184,0.6186554,2.2313972,-9.718301,-0.26318032,-1.9866529,-1.5482298,0.85666543,-0.15869868,-5.2988887,0.8678008,1.1401339,1.2276791,1.5869999,-4.962174,3.1812754,-0.7968507,-0.40375617,-0.5152068,1.2369405,-0.81212866,14.98392,-1.3611691,0.44629452,-1.7089576,1.9146249,-0.3905021,-1.9090474,4.7109,-0.81792974,0.15149991,-0.27692628,-0.070127904,-4.543799,0.52502024,-0.088588186,-2.2090688,0.19401313,-0.469739,-0.30413967,-0.19901232,-2.0360477,-0.43726197,-1.6077902,-0.015647925,-0.098188326,-0.11862785,-0.5379398,2.752682,-0.5025711,2.685242,-1.1518584,0.66715574,-2.7717125,-3.231106,-0.8398308,-3.581628,-0.7372721,-1.6827717,1.266787,8.201784,-0.539409,-1.09883,-1.8954085,-1.0530516,-27.558205,0.32462922,1.4820637,-1.0922297,-0.91435856,-2.3746474,-0.65694165,1.2930055,-0.9853259,-0.7864368,-3.5910122,-1.6030321,-7.1064167,-5.5979075,1.2159588,-0.258078,-0.6503939,0.24767555,-6.239299,1.1616836,-3.5611408,1.1383879,-0.27803138,-0.8422448,-2.1377084,-7.6501575,0.29915214,7.526115,2.0532072,-4.050384,-1.5310404,1.3277673,-0.6929328,1.4444875,-1.4907238,-0.37335005,1.1729885,-0.98457855,0.90369606,-0.6510078,-0.48933646,-1.1298224,-0.31513014,-0.08292392,1.1793565,-1.3981379,-0.4005823,-11.931524,-34.14046,0.29087675,-2.1424165,0.6143494,-0.90497214,0.5783794,-0.5233612,8.937204,-0.12830798,-0.29870364,-1.1472768,-8.465148,-0.45387423,-0.6988026,-0.7995257,0.07412324,-2.228272,-35.415123,-21.865,6.276485,-1.5581465,0.29121268,0.9731976,-7.2786436,1.0450565,5.6395698,-1.6637652,14.431072,-1.4076746,-5.013225,-0.36076728,2.3799303,1.2595706,0.9870047,1.3448203,-0.78286994,0.83631605,-6.0142183,-2.441693,-13.052084,0.6172259,26.92188,-3.033554,3.282075,0.54973745,-0.4331716,-1.0545785,0.23593205,0.96317834,-0.023803338,0.44142324,1.0377836,10.144485,-0.88245356,-1.1738567,-1.3204187,0.78824323,-0.17310654,0.43305916,0.6292624,4.092412,4.492762,-7.5049767,-0.04450975,1.1681087,0.38978988,1.9182115,-11.862069,-16.708143,9.231127,-0.64454067,-0.5014013,0.32818606,-6.3691335,0.0042237695,-1.2641492,-0.1425437,0.7100603,0.5210575,0.3485357,-10.989943,0.5238449,-0.16651891,-3.1937852,-4.511298,-1.1004658,-1.2761031,-0.45557353,-0.08770748,-0.007374308,-0.39018783,0.38327646,-2.7970812,-0.40687233,-1.1433733,-2.3873982,-0.23247522,-1.1149335,0.10596866,-0.9760933,0.42972064,-0.9879316,0.3693975,0.67261356,14.006008,-0.54315406,-1.5242474,-11.71736,0.11904975,-3.0622694,-0.2560793,-0.40063816,-0.07802298,-0.60514265,-0.41895944,3.3158507,-1.8922693,0.7628667,-0.38025096,-0.86067533,-1.2505873,-1.8295943,3.7147,-4.8889065,-0.017029736,0.30691057,0.024715006,-1.2504921,-0.7459385,1.7681166,0.019418074,-1.8280936,0.3281464,-2.1689894,-2.3902025,6.815472,-6.2061877,0.8929441,-0.55791235,1.0161383,0.11849139,-0.56563866,-0.4677563,-1.545822,-9.218607,4.925683,-1.8653826,-7.78459,2.5095453,0.33881617,13.143214,-1.8427958,-2.5495598,-1.042231,-1.4865568,-1.5227991,1.8385766,-1.7499443,2.590301,-4.092594,-4.2546086,-0.2074093,1.1438688,-0.883435,-2.3829658,3.2146983,-0.98586166,0.19286862,-0.70956856,-1.6331751,0.015447337,-0.3140462,0.015294244,1.314268,-3.0815067,-3.828635,-0.82353306,-0.20901759,0.6789541,-1.4647598,-17.515976,-0.40783712,2.1406894,0.041649155,0.33085158,-8.046049,-0.31816083,-4.974025,-5.972881,-10.442963,-1.1719201,-0.34733433,-0.85152394,2.7514558,-1.8833134,-0.61845106,-1.5706725,-0.66650724,-0.7062118,-0.6823934,1.3036938,-0.16984169,2.1491303,-1.3013382,-1.4565976,1.2027704,-1.2229626,-8.120575,-0.22601648,0.48564848,1.1297902,-60.94753,-0.39595553,-3.1710873,-1.3144261,-1.7537158,-0.13986258,-1.8096967,-1.3488319,0.7043422,4.777878,-6.1867003,1.3718734,-0.6081873,-0.2132368,-24.204918,0.92271805,1.7506353,-0.25489682,-0.13797991,-0.4796681,0.37758312,8.281965,1.5207293,1.4780275,0.75530165,20.615892,-3.9816992,2.6952279,0.42346975,0.6973704,0.48338938,-0.9207688,1.0133992,-2.5882401,6.569231,0.7301337,-1.789767,-0.82303166,-14.433486,-1.1582661,1.9240514,-3.8200932,-21.712383,0.16881515,-0.5528037,-0.39086473,0.33301404,3.042006,12.89419,-6.064801,-0.3954815,-1.3975813,0.44934705,-10.04285,-5.1641498,-1.3803102,0.014163315,-0.7388045,-0.1293221,0.84566593,-0.5065347,-2.075447,-0.32114184,3.7697217,0.40434206,-1.7960532,-3.5477037,-0.6047148,-8.029684,0.38218042,0.37617797,2.1166446,19.594984,-2.3231928,0.56831926,2.0932024,6.1434774,1.1480577,0.6339651,-4.71479,-0.29034793,-0.18558924,1.5888762,0.39803937,0.8948698,-0.24710245,3.0983963,0.6627613,0.3967435,-0.33234367,-0.6119958,-1.2304057,-0.78825194,5.2336016,0.262748,-0.044126168,0.71301895,-0.34181714,0.22264652,-1.5041186,-0.74942505,-0.7318519,-1.9380957,-0.3905189,-6.1314087,2.3252292,1.4444503,-1.3592839E-4,-22.040545,1.8766764,2.2388709,48.614838,-0.56747055,-5.2981906,0.4431473,-0.8696869,0.07195744,-6.660374,1.2227253,0.93609583,1.29526,-0.66880214,-0.70724976,-0.10688322,-18.383322,-0.63863695,-0.9215596,3.5526595,-0.13445887,0.540751,-0.5569389,1.8144748,-17.099686,-1.537706,1.0207905,-0.60410047,-4.0395355,4.0534706,-0.29349634,-1.3084627,2.0723736,-2.1523762,1.8248774,0.14224283,0.10324534,-3.7084856,-1.3437313,3.4540966,-11.150047,-0.15293813,-2.2486591,-0.5134304,1.7722927,-0.93519217,-13.253506,-1.0816994,-3.4373243,9.0675125,-1.0884151,-0.7140988,-1.7237475,-5.3424277,-0.9009828,-1.2767482,-1.5364772,-0.0013679729,-0.29852647,-0.40983108,0.56686854,-0.66417426,3.9765437,0.5016942,-0.81326175,1.4613096,-0.730505,-0.32477263,24.67242,-0.52380157,-2.6692722,-2.1123776,1.2376541,-1.6989335,-0.06324555,1.6127102,-1.1343222,5.3995423,0.54863304,-0.05924336,12.873657,-1.5662202,2.3105934,8.952948,0.74307126,0.12566668,0.30849946,0.33851883,0.14149278,-3.0119748,7.65546,-4.5612016,-1.9787891,-1.0562515,0.58287376,0.4638587,-2.2607858,-0.6019387,-0.1057505,-2.1259036,2.2376752,1.9505568,20.346563,-58.5106,1.136191,0.13582171,-0.43708253,-23.475126,44.493225,28.131945,-1.1257471,46.87968,-1.1748081,0.4909706,1.2983439,-0.16431977,-1.6445467,-3.506303,-1.5043573,2.3815002,6.116167,-0.48995227,-2.0840933,0.31997228,0.117325045,0.32820493,-2.9682636,-1.428706,-1.2355369,-0.4734602,0.8654558,-0.64402837,-3.2805135,0.27879402,-8.876658,-0.5348319,0.22713886,-0.60971475,-0.5958278,-0.2970602,3.288067,-1.9780269,-81.48012,4.3457317,-0.8761889,0.07262656,-0.5289118,0.19676776,-1.2630754,-11.2822,1.0144492,-1.075292,-0.58991784,-2.2161,-11.156287,-1.4726251,-0.49666792,2.208736,4.5851364,5.860413,-0.46747965,0.8795221,-1.2762719,0.7750244,-3.215483,-0.3999027,1.5711062,-15.39997,27.355747,0.33183324,0.6864927,0.43767115,-0.67576087,-2.0306733,-0.4931445,24.33546,-0.19889994,17.644642,-3.3287582,2.6958783,-1.6552333,3.029917,-1.2924447,-1.1950547,-0.22117263,-0.34658593,8.350967,6.4123964,-0.12410189,-0.60374343,-0.8273692,-3.2516541,1.7396067,-0.32720292,0.018816132,-1.1957254,-4.248378,-0.6887254,0.09084008,-2.1670425,-0.1269122,0.13032863,-0.06463311,0.43333554,1.0911851,2.3549695,-0.34429055,0.74404514,2.8899367,0.6426144,-0.30025133,1.472255,-2.5044463,0.5426582,-7.8636684,1.2689128,-0.5504868,-3.9844947,-1.3841743,-0.2509065,-0.102901265,-0.1285115,8.4188,1.3571402,0.4847548,-0.41095608,-0.09394707,-3.6207774,1.3036866,1.692968,-0.16764627,0.1729327,-3.2855883,1.5556945,1.3408815,-1.43603,14.741698,0.19513778,10.893275,-15.424989,0.046340603,-0.80256015,-0.18477307,-1.8967367,-0.47120267,-0.078338064,0.22958481,-0.26429096,0.8996717,-0.41697693,-0.72352135,-3.4713616,-7.346876