0.3919226,-1.1026298,-1.6062276,15.908127,3.2632847,-2.3558164,-0.7532827,-0.6827263,-4.1771646,-2.3773038,0.76432437,4.6090355,-0.71895456,-3.1225476,-1.0964845,-4.4018345,-0.5069554,1.279244,-1.3241457,-1.060315,-1.7941206,2.7474282,-0.945607,-2.7178357,-46.39612,0.41829604,-7.5818815,-0.30127636,0.0084913,-0.33054897,-0.9901409,3.1416519,5.219496,-1.649514,0.5595191,-6.2550783,0.22101831,15.762793,-0.60312986,0.69004864,-16.734814,-1.3401669,-2.3417087,-0.0020206475,-1.9456103,5.2915535,-0.33537978,0.44564682,-1.1950448,-1.3187132,-0.13691527,-0.13551629,-0.96774167,-0.1861157,-1.330148,1.1155016,-1.5539753,-0.5627437,-0.58601147,2.647263,-0.5953985,-7.2521563,-20.232264,-5.513963,-2.01031,0.24617451,-0.868264,-2.241235,0.042550907,6.3810964,0.09429112,41.18884,1.0624094,-25.347557,-0.38193658,-0.10454576,-2.849801,-0.44355342,2.5175192,69.05995,0.8970452,-5.039753,4.416594,-1.4257276,17.614477,-0.87009984,-1.8263611,-0.22408196,-0.82604265,-0.16398466,2.2296782,-1.3966118,-0.38793224,-1.720077,-3.9155264,31.526833,-2.5552993,-0.5312377,1.236198,-2.201255,-1.4902303,4.9617124,-0.32936236,-0.17912892,0.28265342,0.16322866,0.011724487,1.0161471,2.7085638,-1.9847502,-12.928219,0.06513241,7.705948,-8.072768,-10.06505,-4.0781426,-1.6133417,-1.0101012,0.54063845,-2.3619533,0.29793864,-1.6462111,1.3483304,-0.4989984,4.1202602,0.22581829,0.8492681,-0.14025156,-0.0069294684,0.15460151,-0.65647477,0.46884134,-0.33931643,-1.25055,1.8934991,-1.5576353,0.46999076,-1.4399562,-11.299866,-0.22785598,0.6435935,-0.23248991,-1.0968469,-0.15232494,-2.0687475,-2.21566,-0.07707777,-0.3850701,0.006246176,-1.0366406,0.9719742,0.116967306,-0.82187426,-16.448502,-0.82688874,-0.3170829,-0.21327285,0.5526327,21.332893,3.750699,-1.1745682,-0.029623188,0.7118575,-0.64609027,1.6171583,-0.2256233,-0.6704573,1.946523,23.24256,-0.45851275,1.9627556,-0.5680415,-4.356279,0.14400412,1.6218992,-0.4772066,0.28218266,2.8570926,5.861598,-1.2170085,1.0286998,0.26892972,-0.5027792,0.30885795,-2.9121933,2.9393365,-2.0753868,-4.339078,-1.4301658,7.5255632,-0.7059656,-1.439949,-0.22621569,0.84900826,-11.177485,2.767932,8.309087,3.278122,-2.1817877,0.9135051,0.46249735,3.1336534,-0.9731857,-0.05043059,-1.0401347,-137.05217,0.2731495,-3.6054392,-0.5393019,4.821829,3.5518436,0.4892656,-2.0959072,0.07940068,-0.24158517,-0.71237075,-4.342992,0.6069954,-4.573043,0.63149405,0.008125575,-0.036799625,-0.3339346,4.905454,1.7210915,-5.135962,3.7225487,5.535257,-0.15308511,0.4697177,11.548848,1.0459567,-0.068786286,-5.950591,-0.26076603,4.924341,-0.32994226,-1.9942361,3.514322,0.8665519,0.39129668,3.6840448,1.5951753,9.767142,1.0901744,0.5610484,-0.47683862,-0.4687365,3.297721,-1.0793254,-6.904975,23.374693,-0.25296995,-0.87004036,16.133978,-0.604748,-1.3880746,0.06513339,0.34206808,-0.276034,-1.7992669,-6.8760757,-0.5554468,-0.59508,0.7649978,-1.3822178,3.4593832,0.36136422,26.55811,-0.62484473,-0.086258925,-0.8517619,1.093282,0.18665023,6.2642984,-0.8900948,-1.4776329,0.47423697,-0.8841989,1.0820442,-1.2026566,-0.69466376,0.23432003,8.218402,-0.8530034,-1.2506212,0.31196675,1.6791583,0.18429014,-2.539176,-3.4417875,1.1225051,0.6947489,-151.21408,-0.67169106,-0.6058571,-0.3536863,-0.7223747,-1.7041236,0.35041377,-0.46027407,20.34239,-7.981553,0.28870255,-1.9097763,-2.1911979,0.25330952,-4.3819313,-1.668137,0.5733125,-0.23833156,-1.5215048,2.0431027,20.299625,0.3096046,-0.9728854,4.6068993,6.4359064,0.7142669,-0.53484166,-0.4832915,-0.48029053,0.5709062,-0.57581794,-0.23369,-0.8085132,-0.6388565,2.5409687,0.15421589,0.018321462,-6.092345,0.6325684,-4.070448,-0.49171603,0.5501116,-6.241769,-0.7522186,-0.3899558,-1.5456805,-0.6995684,-0.32201874,0.7541834,3.7685325,-2.776507,-3.4016948,-0.10470044,-2.4613917,13.699647,2.4483602,0.18980661,-7.8975067,-0.88838917,0.6759038,-0.42277792,-2.307077,2.5531373,-0.50528574,-2.3402214,0.8605218,-0.9928673,-0.71804845,-1.9153922,0.4398408,-2.366785,4.7046556,-4.4699407,0.40677297,0.29616886,-0.49275896,-5.941053,-0.19406779,3.4537554,-0.71528804,0.18179277,-1.3293661,2.196445,-0.47717693,-0.39780897,-0.35046577,5.5516195,1.7728822,0.3723531,-0.15792692,-4.9275794,-1.1464115,-0.07405366,-0.8147816,-0.44621634,0.30468282,-1.6603498,1.2717221,-1.0437222,-2.7202053,-2.3626115,-3.2489274,-1.5083201,4.067494,-0.8075769,-1.0683904,-0.25118214,-0.20390092,5.2054434,0.14516994,-11.799249,7.7994595,2.6443422,2.4765248,1.3754473,2.415332,-1.5109786,-1.1507478,1.5086344,-4.332099,0.88111275,-15.049625,0.64417344,-3.2084615,-1.5476134,-1.6134459,-0.19544056,-1.1942974,1.2129701,3.026659,-0.15096098,-0.10844709,-1.3660084,-1.3910446,-3.7053876,0.47224528,0.42353827,4.1952515,-0.55259925,-3.5954018,-11.3069515,0.007026487,-1.5753231,67.76935,-0.076996915,-12.336391,0.4847954,-0.013717681,1.5826589,1.032192,2.8179686,-2.605916,2.5705843,-0.6373135,0.10398077,-0.58163273,0.2648617,2.1221263,-5.5128145,0.19262683,1.0598857,-1.8694364,1.6470392,-0.34941667,2.5781538,0.059060324,-1.2306963,0.7139317,-0.05848026,-0.20105502,-0.6661686,2.0273972,0.6145283,0.9480201,0.2617339,-0.075001106,-1.8311925,3.4729795,0.41260812,1.8394842,-3.4999578,-0.52463174,-0.27363753,-21.881226,-19.74223,-0.43883753,1.1624838,-0.33013728,-0.2760807,0.1320904,0.9149495,-0.97994965,0.6612593,-3.9071844,0.3847483,0.106778726,-0.054860227,-0.02342419,0.6624627,-1.9305565,-2.6987803,-1.1192412,5.032542,0.38628432,0.13317811,-4.0055923,-0.17145488,-5.837961,-0.8640656,-1.1013296,-4.3261943,0.15081356,-0.69811606,0.24747673,-3.5981822,-0.93755364,-2.3229046,-0.92338836,-0.54724663,-0.72515506,-3.0539455,-0.26482114,2.3319888,-0.84686303,0.72645855,1.8654102,-0.009779111,-0.7025801,-0.27203068,-3.0688791,3.917249,1.1229028,-1.9450648,-2.1854115,3.6530735,-0.68975323,5.517445,2.0267348,-2.5307128,6.131676,1.2575535,-2.8522167,0.14085838,-3.725875,-3.2019002,-3.7305384,-0.6735259,-0.5083899,0.0038449764,2.4511034,0.9940182,0.64322126,40.953644,1.1562767,-0.6720558,-1.3549548,-3.6768005,0.5896589,0.17096326,0.17148796,-0.1660065,-7.980371,-3.290368,-0.5419045,-2.0277648,-1.0236865,-0.20530602,0.1023646,0.5606638,-0.68637013,-2.4978218,1.3543726,0.22534385,-2.026819,0.22150946,2.533434,-0.07482575,0.2049103,-0.09868342,-1.6930875,-5.126438,2.9626327,6.451224,1.8015895,-4.8477693,-0.67081624,-0.81957656,50.79439,0.036886502,0.9704668,0.09207557,0.56274635,-3.531638,-1.7446703,2.362209,-0.55980164,5.5272393,10.371557,-0.059260607,-0.35116357,1.0311322,0.29936612,-6.006762,-0.019682616,0.98495495,0.12907594,-0.60250807,-0.14552484,-0.54917854,0.8180953,8.179857,-0.90562177,2.0231957,-0.37979478,0.9428705,-0.17377305,0.18105683,-6.240345,-5.905368,-0.1642456,7.0462413,0.76429164,-0.12794772,-0.44176233,9.59252,1.5653766,-0.19517608,-2.9080884,159.59216,-1.5535834,-0.20796409,-0.19381331,0.3127333,-0.15806562,2.036653,-2.126106,-5.7708426,0.16368093,-4.183696,-0.92933,-0.37362772,-1.823031,-1.0438851,-1.4413503,2.1512797,-4.144485,-0.79553556,0.26436692,0.41775844,0.11073892,-1.9667715,0.029883834,-0.42092144,0.4911734,-0.14784081,4.024287,-0.8896593,0.5797058,-0.17438221,5.831512,9.111008,-12.886382,-3.3832715,3.9675236,1.0474524,2.052467,-3.3216329,4.3057556,2.4022508,0.036191285,-0.45147067,0.35478634,11.955149,-5.1736827,-0.9947386,-0.5522571,3.633328,-1.64766,0.91932833,-1.134083,0.6640547,-1.0742213,-1.0804113,-23.212166,-0.43154085,1.3806866,-1.0953006,1.3331814,-0.7360553,-1.4623475,-0.1535413,-2.4597697,-1.7429608,-0.16180901,3.1570234,-1.105314,-5.3153853,-0.6016829,-1.3741965,-5.0719185,-1.606528,-0.74318457,-3.6562274,-3.1462085,2.0985548,0.010333762,-0.37281123,-0.9050167,-4.528006,-0.3076061,-8.253745,-0.44958854,-2.1519437,-2.8211246,2.5302553,-0.09270061,-0.24940231,11.607508,0.441689,0.7180593,0.44210818,2.058091,-2.6156635,1.9222864,-18.257402,-0.9705174,-1.5114186,1.2686068,-0.4825706,11.428151,-0.3544388,-13.047687,-0.57399666,-0.79175913,-0.7075824,-0.25376472,0.29033962,4.8418713,-0.50771177,-0.8756459,1.197858,-0.3034777,3.3854637,1.4164953,-1.2640882,-18.740135,-0.3194602,-0.9389969,-0.5165251,-7.2436314,-0.9297071,-0.6048126,8.100051,-1.078958,4.0549726,-0.5203348,2.0637336,-1.5781282,0.015781,-0.18627638,-1.0838115,0.4314202,0.21457896,0.4949555,0.6433208,-1.0295784,0.25343502,-1.3593311,-0.38690197,-0.7902067,-1.0320438,-1.3447286,5.5858827,-1.5770254,-0.5583904,-2.2707088,-4.2170644,0.39141476,2.1833987,-0.07667189,0.2152375,-5.259179,-0.2431503,3.4293878,1.9241917,-1.2314993,0.60669774,-0.60957724,-7.071231,-5.687442,-0.19368958,-2.0420873,-0.31530374,189.94583,-7.0328245,-0.523729,-9.976506,-1.2892039,-0.5813415,2.8865137,-0.3376656,-0.54480124,-2.7560103,-0.9230849,0.2852944,-3.5813422,0.027350513,-0.7404875,-0.76318306,0.34604588,1.2552186,-0.031630166,2.3133707,0.28842542,-0.61227053,0.81595266,6.901124,1.4397854,-0.56718516,-0.120142214,0.17385834,0.4378641,-3.564619,0.16972302,-1.6074331,-0.7355759,0.2748006,-6.4975452,-0.035585977,-0.20167366,-0.3819475,2.3972673,0.78825104,-85.116455,0.79588693,-2.3023107,-0.5653721,-2.577958,-0.08436936,-26.98349,0.015014887,-0.1616083,-2.6197338,-0.27785096,5.2269487,16.605183,-0.86309266,-0.7347128,3.5947053,-0.08325897,-1.6920416,-1.1594709,-7.216983,-3.622922,-0.4312472,0.43472224,-0.7001106,0.48278886,2.2451622,-1.0281878,-1.5873466,-1.3914707,-0.10090305,-0.3381194,-0.9845714,-1.2669319,-0.008949852,-2.260372,0.1779888,2.0339906,0.2407715,1.6424865,-0.2841296,0.79364735,5.0541577,2.6739318,-0.52700216,1.5113498,-0.40606356,2.5212522,-0.74914604,-0.49566525,-2.3333368,-0.54105884,-11.172237,2.0308497,0.5246092,1.1293255,-0.022194184,1.2071944,-2.7174664,-0.58731335,0.079082936,0.29869097,0.18904005,-0.19515201,-1.1836792,0.72770727,0.22619978,6.740536,-1.7239807,8.688832,-1.044998,-0.60179436,-1.6960752,-0.36952454,-2.0697556,-4.113304,1.5794098,0.6547817,3.7229633,2.6638618,-0.41346765,-7.5515566,3.8558156,-32.366154,-3.0855477,-1.3886526,-1.0118245,0.044011414,-0.20593265,1.2300333,3.1739414,0.7126747,-0.22327031,1.53781,0.6561127,0.26697555,-5.578563,4.7463284,-0.48672068,-7.2628336,-0.084399335,-1.7173885,0.031103233,-8.759025,-0.13712516,3.2588873,-0.9931562,-7.3916245,-0.2235413,1.615451,2.2953844,-0.3940018,-0.18845253,0.4165393,-1.0785966,-1.117085,-0.38371822,-0.4562998,2.600113,13.158823,-0.8816771,-0.61092573,0.34075972,-2.856824,-1.309929,-0.25200555,2.2008576,-1.8148196,-1.8577586,0.07160472,1.5589725,5.7964444,-0.51289123,5.309115,3.9583964,-1.5581822,1.2035971,0.016250558,-4.3649883,-0.8528457,1.9386492,-0.15366915,-0.5064533,-2.2455862,-0.020824099,-0.2741927,1.3037386,1.1040074,0.9675916,-0.49263236,3.2600548,0.46069553,1.5362873,-7.498214,-4.1416936,0.2221884,-1.6924565,47.311863,-0.5716806,-0.970824,3.4325788,-0.44399133,0.7421189,-0.95303595,-0.7056317,-0.47937742,-0.3970423,0.5295286,0.4587698,0.17840351,-7.1349483,1.0904431,-4.1300607,-0.65704364,0.5628742,8.691605,1.5484477,-1.1356269,0.70855355,6.4785514,1.1140897,-0.67640024,0.58114,-0.3414417,7.425202,-8.003021,-7.9908137,-6.6052165,1.9620588,-0.4079205,0.6283791,-0.9557641,1.7502387,-0.8420916,-7.801838,0.2594007,-0.20756638,-0.647005,-0.5234364,0.875888,3.7331996,0.28993168,25.411385,-0.13846341,7.161155,-1.0345696,-1.6718407,-1.2013533,-2.5812128,-2.7478952,2.6204188,3.3896492,-0.17307463,0.19083557,-0.37718365,0.6493813,0.07854422,-9.401315,1.57376,-1.2260487,6.630833,15.026364,-3.4706404,-0.2440315,-0.3014872,-0.5130256,1.3596969,0.75203866,-0.31381297,-1.9849501,-0.035151124,-2.3380299,-1.6749412,2.4315386,-5.5510335,-0.013313209,-3.543295,-2.7546332,-3.200557,0.73703086,-0.002879681,-0.7666472,-0.49373505,-0.25940543,-0.14257681,-0.032330167,-11.340216,-0.28269765,-1.4196348,-1.1941031,1.7874384,-0.20905373,0.90232503,-0.12784356,0.59655994,2.271488,0.16612332,0.4596728,1.4513655,2.133436,0.20826904,20.961216,-0.8218203,0.8177904,-2.976993,0.22584361,0.5086934,1.3895669,-0.015651813,0.594703,0.933388,0.22070175,-20.844378,-0.78834236,-24.024544,0.015698168,4.852829,2.3367949,-1.3014947,0.94257164,-0.5140874,-0.47713843,1.0133507,-0.7184669,-0.839153,-0.14846992,-1.3484298,6.09169,-0.75559765,-2.0696447,-0.6429614,-8.92773,-5.508302,-1.8733202,0.4831503,-1.1547081,-1.0982339,2.8110995,-0.2540674,-0.97997415,-0.044597063,2.0615752,1.3370376,3.712245,-0.83523566,-5.0648537,-3.7435033,4.5133324,-0.5327221,0.12813875,0.00679516,0.029321373,0.69437194,1.8394303,-1.1414121,5.0215592,-0.64535207,-0.3474485,0.14533351,0.24449474,4.7920513,-1.9627252,-1.9093713,1.088616,0.7187922,2.5017498,-0.73995197,0.07513683,0.62688684,-3.810696,-0.54467237,-2.4710925,-0.22715461,-0.94077986,-0.2868553,0.7610624,1.1644031,-0.5788703,-1.3470864,-0.20253839,-1.2150347,-1.3647053,7.1653194,-0.79646546,-3.6389847,-0.48703387,-0.7258391,-3.332072,-13.339919,1.979423,-0.7525792,-0.7791211,7.3204374,-0.93439084,0.010659532,-1.3728328,1.2834917,-0.19180988,-0.20924121,-1.4058542,-2.0531971,-3.2945547,8.593771,-0.5538303,1.4498714,-1.8375314,0.2656554,0.8069916,-1.9962229,-1.8403426,-1.3867767,-0.7617534,0.6602136,-0.6933582,1.3070868,-1.3867497,18.294504,-1.2133784,4.1162643,-1.183757,1.5933466,-1.0474995,-9.346914,6.711263,-0.076531805,-0.38403064,-0.98919857,-2.706795,1.2664006,-3.0567102,2.5848584,8.452309,-0.63241976,0.7582284,-0.28230873,-0.07847966,0.8229945,-2.6175961,1.4223208,1.6360141,-1.557476,-0.88959825,1.0687714,0.61625016,-0.37908792,1.2075996,-4.937416,-0.8756099,-0.50105715,-8.911545,7.018615,-1.305318,0.40850875,-2.5155647,2.6965466,-3.8767638,1.7564833,-1.6031784,-4.891673,-1.4832135,1.9946275,0.38311908,-0.51397294,4.79795,-0.08737011,-0.5396129,-0.82237345,-0.7497919,-0.40928593,0.30130318,-0.39557278,-16.24894,0.44463757,2.0552356,-0.49980736,-6.1599894,-5.438636,0.53779364,-0.22810146,-0.10446019,0.09829845,1.3451705,-0.60621554,-0.46071023,-2.1797757,3.8151326,1.871859,2.438413,0.3439773,-2.8062224,1.5526286,7.8103065,0.3325318,-99.36989,-3.7616527,-1.1653029,1.3287494,-0.33910602,2.8862133,-0.98171145,1.672289,-3.9247112,2.7927551,-1.7672956,0.9102831,-2.2231905,-3.0639083,-1.2040262,3.2251174,0.5922575,7.228488,1.4265604,-0.45168018,-16.305613,25.876947,-4.0150557,-3.795836,-5.2421656,0.3453228,-0.60975474,2.7184463,-1.2086796,-4.4205728,-0.6225165,-2.275934,-1.1600733,0.5466428,3.554008,-0.9002937,-0.98059,0.14997189,-1.9007242,-5.08299,-0.22697142,-0.06360331,-1.48143,0.40052566,-1.124153,-1.9535171,-0.0786346,6.075802,2.266293,-4.6721272,0.8488052,0.86656547,-7.4217973,-0.6218488,-0.34237427,-2.3573642,5.30207,-0.18249622,0.633391,-0.8068325,0.57344955,-2.0065265,6.4366446,-0.27238882,5.609564,0.36427066,-0.34393805,0.53313035,-16.664967,-0.9566745,1.6734892,1.5951765,-0.62891585,0.8890611,0.046184223,-0.21217373,-0.115624785,7.1510124,1.9393748,-0.6042516,2.1601236,-1.3551947,-39.692097,-1.8262347,-3.811744,-0.55878794,1.9801314,-1.4042488,-0.2573042,1.1332405,2.5756352,-7.775805,-8.087924,-0.07408634,-0.9990699,-0.6877096,-0.09528655,-0.80964094,-0.666746,-4.9793606,-1.4129624,4.7082024,2.6767306,-36.41652,-1.4722396,1.8596375,5.847471,0.5308202,0.9389577,0.5233662,-0.7677198,-9.671166,-3.218142,-1.2397493,-0.84821355,0.36653015,-1.1152725,4.450101,-2.7277074,-0.34343463,-0.97941697,1.5552738,13.280305,13.429895,6.31099,2.1814084,-3.5368388,-3.85596,-0.2910112,24.20766,-0.42969656,-0.2416857,-9.762944,-1.5743512,-0.4031058,-2.2311246,-1.6334783,9.033276,-2.692852,-5.7559843,4.701204,1.8096471,-0.56811917,0.9038263,7.8245177,-6.728605,-0.6530612,6.5669575,-0.6180478,0.3317797,0.4601632,18.69607,-0.021340687,-0.0695684,0.14122993,1.3709382,-0.12856956,1.3041177,3.9527817,-0.069711745,1.7736875,-0.29108146,4.250367,-1.4365531,2.646159,-1.7298704,-0.2142631,-6.2469015,-0.3471666,-0.6760934,0.083735645,-0.6823486,-1.3666784,-0.034297958,-3.0448155,6.61378,0.84767306,-3.6229026,1.1127725,0.7096344,-0.9011294,-6.5876665,-9.085263,-2.6137853,-0.13764834,0.09165806,2.6528847,-1.8024662,1.5243604,-4.6980453,-2.5441213,0.9247791,-1.0402032,-0.91703224,-2.1776137,-0.22972439,-1.3491048,-1.8611786,-1.4207598,-5.371571,-0.27666155,0.24585319,-3.005283,0.12098299,1.7521721,-2.1685123,-1.6741551,-26.89294,0.603609,-0.15981376,-9.014779,-0.29310384,2.7188919,-0.7444092,1.1918882,-32.26352,0.60852,-0.01501268,-1.1678929,0.8083743,2.3468614,-0.7589379,-0.12200988,-2.47726,1.0290751,3.2394521,-0.95895576,-0.5544703,-1.2780925,-2.9526615,1.9173943,0.67765784,0.10734544,-0.026792351,0.930857,5.944143,-3.1595485,-3.850355,0.5838106,-1.1177561,-0.11074051,-1.95433,6.0861335,-0.5609381,-0.9759071,-1.3857832,-5.719643,-0.61343986,5.117872,-0.2417918,-0.8957583,1.0701844,-0.7850056,-1.3879334,16.042034,4.9454393,4.7963285,2.8163252,1.2065101,0.08755319,-1.111631,-0.75829965,0.64972436,-0.3390036,-1.9758135,4.535582,-7.00603,-0.31513953,5.726675,-6.285919,-0.98341966,2.4646955,-0.13597402,-12.108456,-0.22696666,-0.7007699,-0.006251314,-1.3529799,-4.29359,5.6872497,0.124966174,1.2624965,-0.031684533,-1.1176817,-0.21033219,-1.2436723,-5.1508965,1.3418171,0.5299148,-7.6730556,-8.6029005,-1.5150659,28.932098,-1.5214236,9.1584215,0.7938681,-0.14389615,0.8500474,-1.0642481,-0.74723345,-0.81102806,-0.033056404,-0.0654262,7.156106,-2.5252888,-0.18240407,-1.2801616,-2.7921722,-0.3007443,0.94719356,10.929664,-0.7047875,0.47728953,0.37763962,-3.0884168,-1.4011225,-0.7224972,-1.0274541,-3.6739745,0.08161728,-0.5736563,3.5059988,-0.4091417,0.09120018,-0.40987998,1.8393517,12.059427,0.75986767,-0.023093857,-1.5956817,-2.5096302,5.578392,0.71024597,8.34454,-1.0089655,0.44353026,-1.4385455,-0.53225255,-1.0488137,0.26111206,-1.5882831,-2.0767384,0.10108575,-4.046787,5.4709353,1.1514218,0.7481449,0.6765567,-2.0848877,-1.6880412,0.4487434,0.952303,-0.78867203,-0.59475243,1.2792646,1.6390237,0.793896,-2.9484131,-4.0237756,-2.331116,-0.0146329105,0.35192406,-0.93122417,-0.1463488,1.1607366,-0.9791107,-2.3995297,-0.29832554,-2.593045,-2.4952927,-5.741528,-0.30553195,-0.73908985,-1.1196781,-0.45623592,0.56469786,-2.4858456,-1.7207767,0.09687638,-1.9876914,1.4189252,5.811291,-0.92377776,0.16528045,-0.81037486,-0.25785014,-8.391708,-0.82305723,-7.4269476,0.39792442,0.32905447,-0.29190043,8.50106,5.57565,-1.3428407,2.1472414,0.50375456,-0.24515969,-0.7448304,0.16935241,4.2638607,13.147983,16.360474,-1.2435017,-0.42477205,-0.849923,-0.33016646,-23.868889,2.0062008,-0.98383635,-8.335134,-1.4364039,5.700161,-2.1948106,-0.05711136,-0.51877254,-5.1198387,0.42716613,-0.6054021,-0.3581215,1.5849488,-0.004839897,-0.30644727,-1.006607,-0.25713474,1.0918567,-0.9125115,10.511432,-0.8167022,-0.25514552,-0.4903009,-0.9779885,-1.8867958,3.361825,0.7104939,-0.124111086,0.28784877,-0.018145902,0.17786011,-3.471627,-0.3043124,-1.2980889,-2.3251588,-6.529635,-4.006578,-2.65618,-1.7208493,1.7530488,0.46896774,0.076711364,-0.5287773,-1.385452,-0.60740787,0.4345591,-2.1244822,0.26540554,-0.64535314,0.36166805,2.4667544,-0.7921407,-0.7719268,0.23412135,1.8880479,-0.3151881,-0.8176523,-0.5022172,-1.6529951,-0.31300813,-0.7066283,-2.0616283,-0.6910513,-3.8005877,-1.4258054,-0.19244733,0.055759035,-0.24820617,-1.063754,-3.1883395,-1.2029227,-5.6903033,6.1272645,0.2705251,0.8906644,-0.5365766,4.622545,-1.5306023,-1.2199584,0.30312422,-0.22156198,10.471386,-0.975979,0.4952053,0.5242837,0.26335642,-2.1167386,-4.7836027,0.099972464,1.8018914,-2.7642705,-0.5030436,-2.398028,0.22793874,-0.2646719,-0.5587064,-1.4948931,1.1536164,-0.8269949,0.2700947,-1.5127428,1.34738,-6.1041226,-0.03554883,-3.1404347,-1.1991913,-7.6234717,1.4445814,-6.286146,-1.4587078,-1.4788703,0.77644384,-0.9756284,-0.6515738,0.017914578,-41.32681,2.1183894,1.8880223,2.1203551,-2.9442608,-5.179428,5.959241,-0.8571915,-2.5767753,0.54797894,-2.1296263,0.81519765,2.8653886,-1.0125927,0.14178401,-0.20777985,0.5126434,-1.6054376,-1.2457021,-1.989073,-0.62110937,-0.43418878,-2.0862825,-0.58650213,-2.0780816,0.6287352,-1.5088093,-0.33128572,-2.3175159,-0.6966497,4.071263,-2.6098337,-0.2197304,1.4659243,-0.49628353,-3.4412394,0.2570214,-5.0456104,-0.7766206,-1.3177902,-3.275639,-2.0800831,3.4755247,-0.9964985,1.5509717,2.1334062,-7.504041,1.4400697,-0.7988899,-1.8440264,4.6137733,1.1940367,-3.7686262,1.7005663,-4.7695875,-1.2445817,2.6217742,0.1140252,-6.368679,-0.44203714,0.35964385,0.054975335,-1.0501229,0.97521424,-5.4843235,-0.29324436,-1.1388601,1.1119385,0.33516914,0.26802483,-51.50961,-3.4459457,-9.937844,-0.65175164,-0.22788475,5.7116203,-1.0353034,-0.35130823,0.17990945,-0.94336903,-0.6453422,4.4256587,1.7891793,210.8979,1.0013868,4.133232,-24.10944,-0.73476964,-0.08874452,0.64920765,1.1793776,7.4434705,-0.11442607,-0.92550063,-1.8743405,11.933216,-0.28839993,0.31075424,-0.55621684,-21.202248,-2.711288,1.9542819,6.5018034,-113.238914,-0.039622836,2.8731315,2.0754313,-17.150095,-1.3722454,-6.3205833,-2.9046752,2.330304,-9.734851,0.35194457,0.4328163,-4.854421,0.7923679,-2.5264516,-41.95378,-0.104406096,-0.6089896,-4.2722063,-0.41901782,-0.52189106,-0.018822765,-0.8273176,0.9839203,2.54734,-20.486292,-0.96863985,5.419328,0.12670504,0.19877142,-0.024908222,-0.14960885,-0.39480293,0.8453037,-0.96301943,-0.78717506,-0.30610433,0.7099969,-3.3166444,-0.40971407,0.011472054,2.2859716,0.969921,-3.3554907,-5.855469,-0.35990044,-1.4800906,0.41092888,4.3218822,-2.010386,-22.86331,-0.21158785,6.0895987,-0.18434978,0.2971167,0.68817747,0.6972162,-0.095054366,-0.5656757,0.6435894,4.9339576,0.12160853,1.1730121,-0.77117556,0.15164712,-1.322284,-1.1258667,1.4688137,-0.7387162,8.282219,-0.6383044,0.47938085,1.4436688,-2.2762163,-0.54782236,-0.37093917,3.976337,6.135744,-0.104478925,-9.879804,1.1951821,0.5543456,0.21035017,-1.9535601,2.4043207,-3.0388515,3.4123492,-0.38087672,-0.8186271,-0.89381605,2.0397496,-1.2247722,-1.6027032,-8.297852,-3.315916,1.251449,-0.15102059,0.2433133,-0.41934022,-0.86582774,-7.883884,0.8773619,-0.75240517,0.46375906,0.6072377,-0.0029538223,-0.33676708,-0.45993963,-0.222902,0.20823346,1.9563792,-11.029771,-2.099051,-1.3111466,8.001327,-0.92545563,20.52797,0.73814386,-0.7437009,0.8685834,0.16059907,-4.241217,-0.38015565,0.648671,-0.44761434,-0.86341465,-1.4982358,0.056882612,-0.7394948,-0.22735775,4.0482025,-2.5019934,-2.1841328,1.4995817,2.3780246,-4.2157307,-0.47989067,4.9085565,-2.5951953,0.45604268,-5.080192,-0.9999667,-0.2809408,0.4699787,-0.8356587,-22.731491,0.4540361,-4.4963927,0.30266842,-0.2309764,-0.76980716,0.15719818,2.5556817,6.925974,1.957587,-0.3689251,-1.569507,2.27211,-5.5695295,-0.20579815,-2.270568,-46.93175,-16.376238,-0.15069078,-7.3066125,-0.3554768,-0.508703,-16.266039,12.774409,2.148572,-42.413982,1.6325091,0.1566607,-1.7724329,-1.6002123,-0.48250794,1.3174716,0.14058985,0.12828812,2.0258453,0.57910806,-0.41621846,1.354273,1.4319762,-2.802735,-0.10846173,0.14085516,2.88451,13.005839,-1.7281475,-1.1176822,1.0583066,-0.49793997,-1.78103,-12.0173,2.228137,-1.2614857,-2.275166,-0.31181586,1.3758934,-1.2681285,-2.4853702,-8.639463,-1.0566497,-4.2725987,-1.1345747,0.457216,1.6815246,0.15861215,2.378498,1.4608427,-0.06608356,-0.005290244,-1.8561643,-4.4687514,-4.343732,0.86572343,0.16514304,-0.13984454,0.16059878,-8.498015,-2.3418539,-163.01962,-0.28942388,-0.9672421,0.677374,-0.68238187,-24.438818,-0.4760166,0.8239825,-1.8288682,1.2149678,-1.5049282,2.352902,-1.488522,-0.6978539,-0.16561973,-0.41608247,1.4392334,-0.91680634,-0.64494675,-0.5317905,18.681536,-0.83462274,2.7925003,-3.0711935,-1.8353025,-1.7865455,-0.28839463,-0.8515626,13.910157,-3.385916,0.33925915,1.5667701,-0.30590308,-0.8767954,0.09962366,-8.71769,0.338913,-25.523998,0.18825196,-1.8832442,-0.07010845,-1.2797097,-0.6907292,-1.0784292,0.07863311,-0.94733727,0.50228894,0.033261925,-1.3432121,0.66315883,-0.10264855,3.2199504,-0.08215102,1.2502872,-4.297853,-0.42674088,0.31198242,-0.22592378,-2.223631,-0.9600539,0.6392078,-2.1687648,0.1544799,0.9428298,-0.9947433,-17.5871,0.09397322,1.6246724,6.3793397,-1.0160264,-0.8415177,-4.6703815,-10.121458,-0.08877457,0.027509347,-24.363869,-0.36151788,-9.384403,-0.030476259,-35.19195,-9.949545,-0.034446888,49.50454,-9.925082,2.081223,-0.48113474,3.1730402,-0.71991634,-0.5178883,0.20971245,1.0777742,18.652245,-1.1434646,0.800151,-9.519119,0.984892,1.1299572,4.0105033,0.4682772,0.75674903,-0.73375136,-8.179288,-0.26945302,-0.1554203,-3.9001148,1.8004782,-4.8777366,1.3436708,-2.4257274,-2.9185145,-1.1628047,1.4777324,-0.6748128,-1.5130743,0.887723,0.5057918,-1.3278062,0.01171498,-0.65470475,-1.5801318,1.3967611,-8.897154,-2.000802,-2.6413405,1.466743,0.91303366,-0.4505328,-9.842539,-0.60057324,-0.20139024,-4.1229873,0.8950936,-0.3165627,0.32903793,3.5961835,-0.82304156,-0.06792151,1.0207206,2.0228627,0.51236755,0.8711155,1.3752978,-2.969892,0.2926188,1.3691665,-0.14242688,-2.007057,-1.4432698,-3.7586212,2.2389321,0.6805771,1.6780416,-0.11931303,0.5570196,18.53281,-0.21624014,-5.21364,-0.12384235,-1.475908,-1.0481727,-1.7460105,-25.127514,-0.56357354,0.73003393,-0.11547816,-0.15072066,-0.6459478,-0.22672142,-10.846918,-2.1487463,-6.8981166,-16.181818,-1.0571127,-0.015602676,18.975601,4.2733345,2.4982333,0.32161433,-0.4876765,-1.2658309,-0.122436665,-0.8207953,27.588808,-5.037078,-1.757915,-2.7105458,1.5369786,-1.1238415,-0.72063076,-1.1106533,-0.014178052,29.530905,-4.5680013,19.495768,1.2858756,0.31495488,11.08102,3.0130439,0.8849241,-1.5357981,0.5921162,-3.0875266,0.42928207,-0.77524394,0.6260645,-0.92544407,5.6088247,0.030139906,-0.7250903,0.22591564,-0.8531294,-3.2459483,-0.07699563,30.364904,2.7039578,1.6863117,-1.21751,0.38228473,-2.6830945,1.0953091,-4.8778687,-2.3013413,-0.53569984,2.769317,-4.55498,0.25319058,39.151657,1.7156451,-2.4751744,-0.47655392,0.6794042,-1.2055879,1.0316359,22.381634,-0.70077753,-0.10610723,-2.9728885,-0.7323937,-9.866917,0.2929124,-0.19587614,-11.427937,-1.070011,-0.58210135,0.9003117,-0.9397894,0.49500728,-0.06684403,1.8139274,-1.0258502,-1.6501081,-0.69791126,-0.41619924,-0.4174987,4.3048806,15.334251,0.20654984,0.5957687,0.86918,-1.055066,-3.4364462,2.4208467,0.09479914,-0.2744884,-0.31695265,-10.663048,0.2753069,-0.37653503,-0.8584434,0.07879789,-2.1999485,-0.32167968,7.2777996,-1.9402647,0.25672537,-2.5424697,-0.3357558,6.2074513,-0.33517262,-1.6008732,-2.7395365,-1.3635881,-6.3617687,-0.43863237,-1.5707547E-4,-29.891544,0.20770837,-4.180193,-0.69506156,12.29674,0.8866218,-0.45405748,-0.3893971,1.2910347,1.6149209,-0.8432237,0.79738456,-0.25275373,-8.651845,3.739797,1.0518905,125.78572,0.6884367,19.77455,-3.2673652,-6.427837,1.951007,-46.328266,-2.0196264,16.108826,0.13728389,0.017109778,-0.4012817,0.07975648,0.44240582,1.7348417,-3.9818335,-6.1677957,-1.4380848,0.8798105,-4.7189264,-0.92236656,0.35355592,-0.24054185,-2.8407593,0.19309613,-1.8780357,0.6373746,-2.8342514,-0.9786294,0.66672194,-8.073712,-0.42855844,0.89322954,-0.9029544,-0.7163812,-0.885809,-0.22538698,-2.4196756,-1.0978951,1.5619407,-0.7375663,-0.64289254,-0.052580964,-0.302438,1.6330273,1.3598366,10.705159,-0.13537943,-7.416582,2.976682,18.701332,5.8547187,-1.0889353,1.4787407,-8.181283,-1.0485986,-5.223802,-0.8129114,-0.12930754,-0.81091315,1.9032843,-0.86505437,0.68486273,-4.279027,-1.423401,-0.6239009,2.3409784,-13.703021,-0.48587143,0.24855232,-0.28774306,1.7579272,-0.95802397,-0.83176756,-33.463516,4.6634054,-5.65847,-0.5083269,2.2584734,0.5166602,1.1171197,-1.1113929,0.04860395,-0.3091345,1.5896789,-3.6066806,0.32831058,1.0719402,-0.2482752,4.688657,-6.9531264,-1.065813,-0.31537303,-1.2314287,1.5431052,8.945152,0.57386184,4.540999,-0.060838588,-0.621217,-2.2503438,-0.24113205,0.4599209,4.886328,-2.6969318,2.6846492,-0.8718958,-4.149399,0.18078442,-0.42703724,7.622168,0.07230483,-1.6947339,-1.5138826,4.157832,2.1192844,-1.1371933,-0.07994672,15.148509,0.34635854,-1.1703829,1.2747878,0.784891,7.618022,-1.2585409,0.025484232,-0.19820222,2.4300404,-0.43538973,-2.1248531,-0.18946183,-0.34423926,-0.114244744,-5.5756245,-1.605482,2.856644,1.7206725,1.4019016,6.328698,-0.6526981,-5.1285386,-0.069383316,0.072572365,4.9463573,3.0807705,-1.3149896,1.1022143,2.0024602,-2.6218762,-1.0400752,-1.4336495,-2.1934423,0.11132698,-13.304103,-10.668532,-0.4119662,-0.3900126,3.344753,-0.382619,0.13078083,-0.45149398,0.4530731,-0.19240232,0.60493165,-0.3236992,-1.8867851,-3.1448224,1.0491936,2.3456132,-0.5362521,2.7373106,-0.09324041,1.6902349,-2.1072006,-0.7495739,-0.20551625,-0.53734684,3.5194833,1.3071517,1.5039937,-0.07150018,-0.40960482,-0.082166955,4.311151,-8.014525,-0.8243303,-0.59677446,0.2937076,2.5312939,-1.5191563,0.47873965,-3.5552557,-0.21054031,-1.0164276,-0.58092195,1.5833153,0.7908255,-6.4336967,4.0126476,-0.79946935,9.399095,0.71555036,3.845139,-1.3667566,-1.1980355,0.19649415,4.329142,0.63504094,0.017628957,-8.052411,-0.50164515,-0.13092741,2.5770464,-0.5512079,-5.156912,-0.4117666,-0.04018185,5.39002,-0.9274449,-1.1917481,0.92641956,-0.494436,-1.5002524,-0.9071425,-0.50932604,-1.0980172,0.29488397,3.2983928,-1.0730534,-0.17935179,-0.25772628,-0.07284463,0.6890764,0.066513285,0.5792983,-0.5731435,-1.7480109,13.25423,-0.93589103,0.9064471,-0.4877498,-1.5020568,15.300073,0.47581726,-0.41972706,-1.886439,0.11811623,-0.21510422,-0.29051548,0.13342255,-0.6084328,-0.8508068,13.579682,-1.0987034,-1.577006,0.16712362,2.3129134,-5.112503,0.38951007,1.86076,1.9220617,1.6402345,0.26836595,2.0865479,-3.377515,-0.3685995,-1.4021372,-2.299021,-7.0395937,1.245631,-0.893593,-0.83818144,0.29537475,-1.1769779,-0.7608575,-0.5900337,0.14374936,-1.1348234,-1.4794106,-0.09768697,0.7656566,0.39151594,0.20418121,-0.041439712,-0.13710491,0.9289485,-1.3090785,-0.12033908,-0.40692055,-19.057919,0.07864564,1.3847136,-7.9322658,-5.4413896,-8.854652,1.5504525,3.573719,-2.2545033,1.4545825,-9.474323,-0.69955164,-24.608576,3.6709278,-0.6337334,-2.2518892,-0.37863767,0.055540785,0.44135016,-0.105644464,-1.1547885,-0.45676538,2.1710033,-0.7855039,-1.799705,-2.3081458,-0.6721925,-0.19193988,-0.3478508,3.3008468,-7.046271,-1.0419805,6.4621587,-1.332644,0.8395921,-0.7471601,-0.8849554,0.46302846,0.5862905,-0.05232417,2.0403764,2.4120018,-4.281674,-6.536565,-0.42006245,3.117466,0.80492544,-1.4603541,-0.82296443,6.1205287,-1.215787,-0.14506683,5.8804636,-0.34677663,-0.769014,-0.23721905,-0.26692092,-1.1776109,39.68607,1.3837693,-0.19650018,0.7776705,-2.7186763,-0.711732,-0.83816135,2.260679,-16.296276,-0.09232691,-0.5698703,0.62849665,1.2463437,-0.168626,-4.438838,5.9266663,-0.44232118,0.20108075,-0.34902298,0.092965834,0.6524805,2.268395,1.3977327,-1.0543232,-0.97224367,-4.5179715,-0.3007594,-1.1510373,4.1533027,3.789678,3.906965,-0.60703886,1.236833,-3.059189,-1.5002221,2.5084367,-12.499166,-1.4047343,-2.4200206,1.4757377,-19.101084,0.37066555,2.171152,1.3184701,0.048926998,-0.12053329,-0.20428777,-4.1206856,-1.2395511,1.5184597,-6.993798,0.02792624,-0.3015803,-1.0410713,-5.632323,-0.7285557,-0.72949976,0.6646212,-1.0992299,4.2670956,1.6396725,-1.1135403,-3.767438,-8.869368,-10.277748,-0.9357257,-0.5697088,-1.0137237,1.7906113,2.1818094,-2.446868,-1.0169436,-2.6999183,-0.6268774,-0.9665892,6.205071,22.066942,-0.8665388,-0.7282849,0.9975282,-2.9366493,3.2429855,-3.2203515,1.3271302,-52.48195,12.292847,-0.21741214,-0.51515245,8.399781,-0.8467612,13.843497,0.54470736,0.59463155,-1.9014984,1.0719409,-5.4564943,24.801725,-1.5252892,0.19020173,0.2474959,1.3131585,0.28961232,-20.597372,0.6836392,-2.1469538,-0.12722799,1.7487249,13.440278,2.8673925,0.6012563,-0.52553415,0.98454446,1.6600766,-2.2152262,0.049489778,-0.33400875,-0.8758158,5.076376,-2.5033004,0.14458905,1.701118,-2.027218,0.5005313,1.6559047,-0.7968455,-1.1877768,-3.4613826,-0.8648545,-0.4171761,-9.031111,1.3619494,1.374271,-0.7219907,5.590444,-1.8143055,-2.034706,-0.8682998,1.1498325,0.4064156,0.9241605,-0.3597065,1.8386477,0.21901086,1.4742856,-1.0083481,-0.33844486,0.6350036,-0.7452001,0.29298875,-1.4809246,0.08506555,1.1123854,-1.5758848,-16.266903,1.9799496,-3.3286552,-2.5567508,-1.7428484,7.431275,0.16374518,1.3152363,-5.2635527,2.7668736,-0.23035762,-0.6428463,0.6392752,-0.9323654,-1.3594692,0.31503895,0.5957617,-0.17504339,1.6493503,-1.1537402,0.23000586,0.50119656,5.642392,0.28636977,0.7536343,0.58093,-1.6369271,-28.411598,4.2265472,-1.0873933,-19.033728,-0.88767505,1.8720262,0.14706595,-30.804796,-0.2962214,0.5156366,0.42559928,-0.13092056,-0.2096346,-4.1679373,-0.74129736,0.20382498,-1.6325823,1.2868278,-9.473673,-3.6805892,1.545619,-12.418655,-0.9035843,-17.406357,0.2793542,6.075355,0.13474518,-1.1512909,-1.4496901,-1.3197134,-1.0516047,-0.35369405,0.14284071,1.9860357,1.7303088,-0.1925006,-0.171701,-0.110187225,-3.002935,0.24508598,-0.5126117,-0.26129287,5.861745,-0.28079742,-1.208215,-1.8105103,0.8154107,1.0380147,1.9792371,1.310785,-1.4241146,0.11157886,-1.7331216,-1.279488,1.6919571,-1.9340986,-0.20417133,0.19914217,-8.637912,-2.3863482,1.7490592,29.129324,0.6258071,7.877581,-1.2482492,0.61061335,0.8750573,-0.73367393,-1.742538,0.18760495,-0.35444045,-0.95531905,-7.164876,-0.06513812,0.1990815,-5.300408,0.5084612,0.21714965,-0.67813927,-21.083973,-4.8038764,21.271656,1.0447707,0.6836418,-0.4694209,-0.6275348,0.3234319,0.93677473,-2.0560968,1.2637858,0.2613292,-0.42309013,0.20792805,-0.6564431,0.38544887,-6.1251154,-1.7618972,0.93306154,-0.3396406,0.29408556,-1.5833974,1.1374975,-1.0640078,-12.043397,-0.4175634,1.6663973,-0.08643426,0.8256941,-3.2148564,-2.3895602,-1.4339913,-2.4404728,-0.9777663,-0.18950212,-0.714711,0.40527332,-3.1133819,-0.09393577,-1.0682759,3.3242269,8.389896,1.3263074,-0.19720493,0.16957925,0.2394749,-0.29297116,-0.7686235,0.5287257,-0.1950937,-1.1686484,5.4360757,0.28587568,-0.21677454,0.15111934,-3.4259918,0.062366366,-7.366615,-2.1006508,0.91227543,0.59728646,-5.7663245,-0.9802128,-0.5970029,-0.4096298,0.0207166,3.32374,35.007744,0.40620658,-0.8548334,-2.774207,-0.42221704,-2.3172095,-0.72691554,0.49896762,0.98290896,-5.0911913,0.02354607,-5.1383963,-0.15309826,-0.36715105,-2.3634772,-0.3767103,24.166842,0.46993518,0.09517234,0.1144467,0.32957008,0.5192841,-0.27321932,-1.0601681,1.2861682,-0.28015873,-0.009989636,-3.6194484,1.0575719,-2.7407143,-1.6754407,0.81699795,-0.84223753,1.3711891,-0.02151773,-0.3489053,-1.1626328,-0.39865327,-5.7595387,1.1532327,-2.6950333,-0.15203708,-0.85852087,-2.100983,-0.045138467,-3.5301137,-3.2226405,-4.1970253,-25.125376,3.3586318,-1.471843,-0.27354494,3.7802339,-0.5980632,-1.1252447,-0.14880924,-0.6074878,2.4155822,0.3130174,-11.471554,-1.8857315,0.28941417,0.6705816,-1.6838026,-6.6427083,-0.9103466,-4.2526617,-0.24292979,4.41194,-3.127094,-4.023332,-0.6056314,0.79968643,-1.1574591,1.7996986,1.2939229,-3.822549,-1.6071779,-1.1400156,5.91368,-5.6340218,-1.4892253,-3.2942,-0.5943151,-1.8322316,2.7756293,0.4583143,-0.20779103,-1.2006137,0.34739956,5.3822336,-0.3407671,-2.2861404,-5.8695803,-2.0248938,0.094644874,2.389616,0.49923998,0.10423444,0.728737,-3.7513146,-0.22117305,-0.34805238,0.05412344,-16.051994,-8.36634,-2.3469748E-4,1.615133,-2.7557693,0.65631574,-0.035673443,12.080712,-4.608707,0.34072244,-1.2010514,-0.78728986,-6.442754,-2.148713,-1.3506073,-0.9403697,-0.5300032,-1.2037784,0.559767,-1.9137881,-0.064540885,-0.3055287,-1.1851021,-0.73146147,-2.1095417,-1.0514175,-0.26407415,-1.5256531,-1.8683815,-9.089671,-0.20040073,5.4974904,-1.6992258,-1.2647297,-0.07614616,-0.26343495,-0.91297686,-1.04871,-0.36768594,0.15993595,-1.5238028,-2.1712766,2.832563,15.339644,-3.8275378,-1.0986807,1.1693791,-4.609471,-7.785587,3.0681605,0.036653932,-0.4407817,-0.44637913,-2.0484552,-16.821718,0.217414,5.121061,-1.4455129,0.22031583,2.850211,2.4311786,-0.8205377,-0.43993837,-0.09155518,0.8542359,-1.6523707,-0.6011163,-1.4367627,1.028245,-0.6139317,-0.5648926,-0.5963664,-0.15851554,-1.3875974,2.2542887,-1.3544527,-3.780058,-0.35089695,-4.18097,-0.29504463,0.14350958,-0.6397642,6.564063,6.7200437,-2.222072,9.326314,-41.91716,-0.4072585,-1.156438,-0.10993804,1.8247955,4.2513924,-4.8492427,-1.4799798,1.3825216,-2.4729505,-0.5908129,-1.2285099,2.941299,0.31723627,-6.1828194,-0.15983096,5.1717734,-10.897515,2.2665267,-0.48367655,15.435048,-0.33765525,-0.31453136,-0.5418858,0.09252503,-0.348427,-0.7348238,-0.092152834,0.61161923,77.87825,-0.37305015,0.1649373,-1.7952224,1.8432889,-1.8285822,-0.86346895,5.2176676,-4.344666,0.29731917,0.33654612,-1.3390784,-6.4198523,0.45293614,1.3519582,0.1759636,-0.7629839,3.5450497,-0.8565015,0.124716125,-0.24116832,-1.8398429,1.2543945,-5.328714,-2.0008245,96.96044,8.180999,-0.7113278,0.8500906,-1.6594441,-0.72003144,0.09333158,6.6558175,-1.3233066,-0.30724725,0.0109490855,3.9254625,-0.8511311,-0.8039883,-1.1405026,-0.9703064,-0.18455626,59.20966,0.30182472,-0.658291,26.10828,5.0018215,-1.4848702,0.91589975,-1.7269604,-1.5995258,-1.4057239,-0.042871214,-3.6544714,3.8773742,-1.3796507,-0.051459074,16.198687,3.125297,0.1285517,-1.1218051,-15.6008625,3.0436828,7.739144,1.8105626,-0.21634364,10.695324,1.572256,1.6116217,0.30103397,12.623534,-3.466241,-0.011999462,-2.7349167,0.84739685,-0.95541716,1.2203525,8.39406,-1.2340754,-13.382024,-1.1250193,-0.1421759,-0.3068459,0.38429764,6.7564464,-0.12277959,-1.7106797,0.379511,-2.7046561,0.73309284,-0.30316532,-1.0566237,0.38908893,2.6796944,-0.23388994,0.080054425,-0.31444722,-1.2317401,0.15014789,-7.4692235,-0.17663188,0.9813256,-1.2942967,-4.9089503,0.3946021,-2.357777,-17.99273,-1.1278973,3.1663752,-0.047561243,-1.8153019,2.8100383,-1.1160063,1.1183543,-4.3722215,-1.0259986,-0.80756134,-1.3598468,2.3937075,0.24527848,-1.1120576,1.6806341,-26.35753,4.876002,-0.6919335,-0.28600407,-5.795271,-7.2505836,-0.9907033,0.69490254,-0.40378115,-3.0181324,-0.56450963,-10.122007,-0.7387324,1.4421479,-1.6907448,-0.50901186,-2.2566564,-2.3131857,0.07049233,1.07019,-5.4085107,-1.8891745,0.781384,-1.0466566,-0.5034688,-2.4791641,-7.454007,5.3986096,0.032635823,-0.1456579,-0.29913145,2.5775385,-1.3253525,-1.5737573,1.2422993,-0.7935884,0.07764773,17.592945,0.36636764,-0.3973316,3.7499042,-1.4909663,-0.22721636,-8.098633,-0.6788741,4.576636,-1.6431423,-0.33280775,-2.5786893,-0.28406975,-1.152955,1.5260772,1.2030319,25.187016,-0.4058468,-0.35372275,0.28078127,-53.99839,-0.7380909,0.3761692,-0.5010336,-0.9918009,2.5990565,4.1125503,0.2067103,0.08720876,0.92124903,0.94200826,-0.3536777,1.4113814,-11.178676,0.76917523,-4.705213,-2.4835389,-0.7857987,0.3012398,-1.0338511,-11.065901,-1.8299031,-1.4650005,1.5491519,0.6565131,-0.22755091,-2.0750735,0.037660975,30.060055,-0.34149322,-1.9031614,-1.0220942,-0.51387876,-0.7221616,2.9404638,-1.1200019,-0.5193988,-0.0036724987,1.4022704,-3.166322,-0.44855684,1.9489304,-0.854897,0.39776272,-3.27376,3.6287494,6.1170917,0.66854525,1.2555863,-8.359615,0.056322824,0.9597931,0.75831443,-8.035126,-1.166755,1.2921455,0.6892937,-1.7059599,-1.2692142,0.50309104,2.754794,1.0300772,0.50460285,0.04434067,-0.2620883,-2.2131329,1.607128,-0.5826489,-2.7355013,-0.7872051,1.59872,-4.781256,-2.1555755,-1.0374107,0.15972815,0.27025455,-1.165741,-1.7613579,-0.058545858,1.3691839,5.729142,-0.81202054,-2.7034974,-1.0592923,-5.285827,0.17174616,2.834142,0.10076068,4.2586875,-1.0037721,0.2654824,0.13391358,-22.836882,-0.054811656,1.2363814,7.869039,-0.30284142,-0.48227286,-0.24511269,-1.0292592,4.3080063,-1.2582387,0.06299546,1.4665319,-4.4798036,0.09990498,-0.66649204,0.8506948,-0.8758779,1.8750048,0.30952293,-5.977546,-28.962759,0.24609938,-0.8880703,-0.36328685,-1.5074395,-3.0051143,-2.2300372,2.4805346,2.932361,-0.2858375,-1.0355829,0.22876869,-0.017612487,-1.0823379,0.44692448,-0.4446158,-0.05268007,-0.77581245,0.5303935,-0.19126128,0.8944676,4.4141455,-0.31765124,-2.662281,-0.23303428,-0.40050113,-3.3805978,-1.0711321,-0.05940166,-0.10348897,-0.4858449,-0.58293587,-2.239256,4.7221537,0.02007169,-0.6118204,3.5954394,0.07988454,-1.8324035,-0.19673136,-0.96133786,-1.3840765,-0.77709514,-0.40583426,2.988841,11.205019,4.9931574,-3.7036738,-0.15753049,-0.9879467,-1.0476819,-0.24193014,-0.22128743,-1.5939932,4.2053885,1.3743368,-0.9343645,0.78551215,-6.205665,11.949061,-0.16645879,3.3639479,-0.61611676,0.055987105,0.9926744,0.8058615,4.3184705,-25.167767,-0.46557894,4.4058757,-0.55858076,1.2660142,-0.12972346,-0.64955604,-0.46623027,-0.68653226,0.1971919,-1.2327212,-0.3315052,-6.22793,-0.4685452,-0.76132554,-0.77417326,-1.5191132,1.3952094,1.5177029,-0.41133514,-0.04552143,-1.5659182,0.352212,-0.82053334,-0.5316442,1.7948556,-1.0051509,1.4086092,0.34719458,-5.764796,0.6057634,9.622533,-1.099392,0.19006309,-12.194091,0.26272023,-0.16196567,1.0451107,-0.2379854,0.63648814,-0.6519749,-1.427919,-0.30648062,16.295881,-2.6004052,-1.2634261,-0.72431487,0.45516643,-0.61166304,-2.1926606,-0.85778064,8.8748,1.2040932,-0.9664776,-1.2983875,-1.9860008,-0.67477435,2.0797882,-0.11948906,0.322603,0.48076978,3.3866696,-0.9158076,-0.5415924,0.34866646,-3.7706819,4.289151,0.9633055,10.152739,-3.5011766,-2.127011,-2.6748247,-2.2959483,1.7492344,-3.9205475,0.019390445,-1.2259927,0.970711,0.42298484,-0.20716558,-0.60723,1.3896652,-2.7300029,-6.5150967,-0.4010143,0.7173566,1.3341652,-0.43529165,-6.1007667,-0.52404946,-2.6860785,3.2526953,-0.49399218,-2.271697,-0.29730135,-13.568072,-0.21662438,-3.3610625,0.5530725,-0.6166754,-0.7496184,-1.0243309,-15.117813,6.3019676,2.1764503,-0.63268685,0.19620237,0.6408249,0.53241736,2.9130497,-0.41308278,-1.4511777,0.2419674,0.29418337,-0.13618955,15.902174,-0.18078965,-2.366479,0.09777868,-4.1731663,-0.87797564,0.49818543,-3.343575,-0.6844537,-0.3495389,-0.50981325,1.0707233,5.194276,-0.30605248,-1.9149733,-1.7692274,-0.40283552,-0.15463157,0.30588612,-0.29395175,0.22129643,1.826214,-4.4038773,0.45349303,-12.593984,2.277564,-0.270292,3.0831604,-1.554133,-0.007517982,0.80990446,0.0107548265,1.0942873,-1.4866109,0.06912852,-13.030584,-0.744857,1.0791563,-0.20767212,4.59396,0.17193201,-0.46305645,-0.099692,-5.252245,0.3730398,-0.5456326,6.466926,0.1959942,334.1216,0.011905867,0.4988139,-3.2920442,1.5035652,-0.026451021,-16.610388,-12.050347,-3.109612,0.7062262,-0.72895074,1.1261237,-3.331349,0.31825557,-0.64599997,-0.56766456,2.3387558,-0.8854116,13.433788,0.29369003,0.96678513,-0.20103839,-3.8388886,0.58620137,-1.9026976,-1.0258646,-0.8658894,-0.67566675,-1.2315671,6.588266,9.01393,0.96016455,-12.956351,1.3022166,8.447065,4.142727,0.08363081,31.748278,3.9983313,18.666645,-0.3012333,-0.77481884,3.3601158,-0.7546923,5.1085424,43.847878,-0.82542074,0.09666155,-1.5231131,-0.6151103,-4.3037257,-1.3589851,-1.9532083,0.026602268,-1.0056658,-2.645751,0.16745986,-0.13739982,-0.8720253,0.25083113,0.36464933,2.9455307,-0.9623711,2.1245317,3.0010276,-0.13970938,-0.26798618,0.21582362,-0.6543141,-1.6749064,-1.7528627,-3.6942787,-3.522878,-0.16725579,-2.751438,-1.3252544,11.858351,-1.7729578,0.7935634,0.527779,0.9319225,-2.5775805,0.92013866,1.6853993,-0.4103364,0.15197754,-0.7212088,0.07695258,1.1856459,-2.376221,-1.0509114,0.21722828,0.07086228,6.081034,-0.93082947,-0.7055205,2.0588362,-0.8460326,-0.89443177,1.4961466,0.012877852,-0.04945945,-0.8710475,-3.3011994,2.7708263,-4.3559666,0.5426384,-0.6931846,-0.54972947,-0.15951675,0.31910062,-0.20923762,2.9738576,-0.8967838,-3.9481525,-0.11057893,-6.691264,-1.2999612,10.053933,-0.3195906,-9.166202,-0.23680337,0.005180942,-5.463033,2.5446463,-1.9023858,-0.07267047,-0.54320973,1.3605547,0.720989,-6.4226995,0.536193,1.1939307,-0.8424704,-0.20500673,-2.6858468,0.15949602,-0.5740973,2.1368608,4.397943,-7.9060826,-0.31182688,-2.099975,0.29845288,-0.16947782,-0.63670146,0.48998293,-4.732479,1.7751843,92.56039,-0.68966395,-1.6302334,-0.32061613,1.1284885,0.112769805,-0.54266095,0.16516258,-6.0666723,-0.46030098,1.3666838,1.4822688,-0.48078823,-1.4732995,-0.64010847,0.61113155,-0.19186938,-3.054866,0.17558908,-14.29821,-0.15739289,-1.9486165,0.17438889,-1.4306133,0.14175263,2.896182,-127.12991,0.42627984,0.708363,-0.30603614,-0.30067107,-0.1804978,1.8203793,-0.27010146,-0.10081418,-0.007013179,0.57836723,-4.633655,-0.9909289,-0.7108897,-1.6473211,-2.3411162,1.000398,-18.658403,1.4009695,0.86866057,10.460579,-0.5227787,-0.4864738,-1.181465,1.1543322,-13.288595,-0.44999275,1.5416504,-0.8445124,-0.28948736,0.034682766,-0.4716315,0.7246092,-1.3464048,0.29662248,-0.13877368,-0.47552574,1.4982264,-0.9684527,0.07254103,-4.4916224,-0.09011106,-0.17731147,0.6732419,0.08535648,-0.4328053,0.6351217,1.4268258,-11.881199,1.3755765,-0.27104813,0.57998633,-2.0823367,-2.897778,0.16284555,0.1265272,1.3884732,-0.34261805,0.08554144,-0.8347598,-0.2673649,-10.508535,-2.3518972,0.5150133,-0.51495767,-0.7260877,0.2979291,-1.7910488,-1.1525679,-0.06597463,-0.44697237,0.81897,-0.4481056,1.6890146,-0.21620114,-1.8418586,0.90162474,0.4518061,-2.6684706,2.0986402,-0.9863057